{"learner":{"attributes":{},"feature_names":["Parts/Block","Part","W/D_P"],"feature_types":["float","float","float"],"gradient_booster":{"model":{"gbtree_model_param":{"num_parallel_tree":"1","num_trees":"100"},"iteration_indptr":[0,1,2,3,4,5,6,7,8,9,10,11,12,13,14,15,16,17,18,19,20,21,22,23,24,25,26,27,28,29,30,31,32,33,34,35,36,37,38,39,40,41,42,43,44,45,46,47,48,49,50,51,52,53,54,55,56,57,58,59,60,61,62,63,64,65,66,67,68,69,70,71,72,73,74,75,76,77,78,79,80,81,82,83,84,85,86,87,88,89,90,91,92,93,94,95,96,97,98,99,100],"tree_info":[0,0,0,0,0,0,0,0,0,0,0,0,0,0,0,0,0,0,0,0,0,0,0,0,0,0,0,0,0,0,0,0,0,0,0,0,0,0,0,0,0,0,0,0,0,0,0,0,0,0,0,0,0,0,0,0,0,0,0,0,0,0,0,0,0,0,0,0,0,0,0,0,0,0,0,0,0,0,0,0,0,0,0,0,0,0,0,0,0,0,0,0,0,0,0,0,0,0,0,0],"trees":[{"base_weights":[1.2924796E-6,-9.180609E0,2.426304E1,-1.0263699E1,2.7849746E0,4.992444E0,2.8650463E1,-3.4104376E0,-8.016244E0,7.28555E0,-5.625719E0,-3.9890716E0,7.28555E0,2.25105E1,1.0245305E1,1.8320812E1,-3.263685E0,9.624367E-2,-2.7773402E0,5.464163E0,-1.0725208E1,5.5094995E0,2.9933308E1,6.416245E-2,7.28555E0,-3.8867402E0,6.416245E-2,7.28555E0,-6.8578005E0,1.5320812E1,9.835492E0,6.416245E-2,-2.6037564E0,7.28555E0,-1.7358376E0],"categories":[],"categories_nodes":[],"categories_segments":[],"categories_sizes":[],"default_left":[0,0,0,0,0,0,0,0,0,0,0,0,0,0,0,0,0,0,0,0,1,0,0,0,0,0,0,0,0,0,0,0,0,0,0],"id":0,"left_children":[1,3,5,7,9,11,13,-1,15,-1,17,19,-1,21,-1,23,-1,-1,-1,-1,25,27,29,-1,-1,-1,-1,-1,31,33,-1,-1,-1,-1,-1],"loss_changes":[3.408067E4,1.4671221E3,3.4079902E3,1.620498E2,1.9449369E3,1.6563762E3,3.7953125E2,0E0,2.9889346E3,0E0,1.7575629E2,1.2422822E3,0E0,2.23279E3,0E0,4.2679077E2,0E0,0E0,0E0,0E0,1.4917468E2,1.791973E3,3.9416992E1,0E0,0E0,0E0,0E0,0E0,6.625757E1,8.9735736E2,0E0,0E0,0E0,0E0,0E0],"parents":[2147483647,0,0,1,1,2,2,3,3,4,4,5,5,6,6,8,8,10,10,11,11,13,13,15,15,20,20,21,21,22,22,28,28,29,29],"right_children":[2,4,6,8,10,12,14,-1,16,-1,18,20,-1,22,-1,24,-1,-1,-1,-1,26,28,30,-1,-1,-1,-1,-1,32,34,-1,-1,-1,-1,-1],"split_conditions":[5.84E0,4.05E0,1.3E1,2.59E0,4.54E0,4.25E0,4.8E1,-3.4104376E0,3.34E0,7.28555E0,1.19E0,1.55E0,7.28555E0,1.3E0,1.0245305E1,1.8E1,-3.263685E0,9.624367E-2,-2.7773402E0,5.464163E0,6.863E1,1.5E1,1.93E0,6.416245E-2,7.28555E0,-3.8867402E0,6.416245E-2,7.28555E0,3.3E1,1.7E1,9.835492E0,6.416245E-2,-2.6037564E0,7.28555E0,-1.7358376E0],"split_indices":[1,1,0,1,1,2,0,0,1,0,2,2,0,2,0,0,0,0,0,0,1,0,2,0,0,0,0,0,0,0,0,0,0,0,0],"split_type":[0,0,0,0,0,0,0,0,0,0,0,0,0,0,0,0,0,0,0,0,0,0,0,0,0,0,0,0,0,0,0,0,0,0,0],"sum_hessian":[1.51E2,1.1E2,4.1E1,1.01E2,9E0,8E0,3.3E1,6.5E1,3.6E1,2E0,7E0,6E0,2E0,1.8E1,1.5E1,3E0,3.3E1,3E0,4E0,1E0,5E0,6E0,1.2E1,1E0,2E0,4E0,1E0,2E0,4E0,3E0,9E0,1E0,3E0,2E0,1E0],"tree_param":{"num_deleted":"0","num_feature":"3","num_nodes":"35","size_leaf_vector":"1"}},{"base_weights":[2.9331455E-1,-6.3788576E0,1.791993E1,-7.1779656E0,2.4099274E0,-3.9263268E0,1.8995428E1,-8.446264E0,-5.8941765E0,5.82844E0,-4.273141E0,8.31938E0,2.094875E1,-2.3975322E0,-4.539272E0,-4.7546285E-1,-2.333652E0,7.458859E-2,-2.1107786E0,-3.7518587E0,1.6312494E1,1.6816885E1,7.3638134E0,-5.0320263E0,5.82844E0,5.4537967E-2,-1.5371022E0,6.0105786E0,7.15223E0,4.5346437E0,6.6410384E0,6.0299724E-1,-2.2036893E0,-1.1528267E0,4.3713303E0,5.82844E0,-1.5925138E0],"categories":[],"categories_nodes":[],"categories_segments":[],"categories_sizes":[],"default_left":[0,0,0,0,0,0,0,0,0,0,0,0,0,0,0,0,0,0,0,0,0,0,0,0,0,0,0,0,0,0,0,0,0,0,0,0,0],"id":1,"left_children":[1,3,5,7,9,-1,11,13,15,-1,17,19,21,-1,-1,23,-1,-1,-1,25,27,29,-1,31,-1,-1,-1,-1,33,35,-1,-1,-1,-1,-1,-1,-1],"loss_changes":[1.7990697E4,7.968721E2,1.6492549E3,1.162959E2,1.2203574E3,0E0,6.8072266E2,2.7944336E1,5.4777356E2,0E0,1.0169084E2,8.330967E2,9.2572266E1,0E0,0E0,1.4581428E3,0E0,0E0,0E0,2.2516422E1,2.7210693E1,1.141085E3,0E0,2.265664E2,0E0,0E0,0E0,0E0,3.0070428E2,1.1293105E3,0E0,0E0,0E0,0E0,0E0,0E0,0E0],"parents":[2147483647,0,0,1,1,2,2,3,3,4,4,6,6,7,7,8,8,10,10,11,11,12,12,15,15,19,19,20,20,21,21,23,23,28,28,29,29],"right_children":[2,4,6,8,10,-1,12,14,16,-1,18,20,22,-1,-1,24,-1,-1,-1,26,28,30,-1,32,-1,-1,-1,-1,34,36,-1,-1,-1,-1,-1,-1,-1],"split_conditions":[5.84E0,4.05E0,2E0,2.14E0,4.54E0,-3.9263268E0,1.3E1,7.6E-1,9E-1,5.82844E0,1.19E0,1.1205E2,4.8E1,-2.3975322E0,-4.539272E0,2.6E0,-2.333652E0,7.458859E-2,-2.1107786E0,1.2E1,1.1E1,1.3E0,7.3638134E0,7.5E-1,5.82844E0,5.4537967E-2,-1.5371022E0,6.0105786E0,2E0,1.5E1,6.6410384E0,6.0299724E-1,-2.2036893E0,-1.1528267E0,4.3713303E0,5.82844E0,-1.5925138E0],"split_indices":[1,1,0,1,1,0,0,2,2,0,2,1,0,0,0,1,0,0,0,0,0,2,0,2,0,0,0,0,2,0,0,0,0,0,0,0,0],"split_type":[0,0,0,0,0,0,0,0,0,0,0,0,0,0,0,0,0,0,0,0,0,0,0,0,0,0,0,0,0,0,0,0,0,0,0,0,0],"sum_hessian":[1.51E2,1.1E2,4.1E1,1.01E2,9E0,1E0,4E1,4.8E1,5.3E1,2E0,7E0,7E0,3.3E1,4.7E1,1E0,1.4E1,3.9E1,3E0,4E0,3E0,4E0,1.8E1,1.5E1,1.2E1,2E0,1E0,2E0,2E0,2E0,6E0,1.2E1,3E0,9E0,1E0,1E0,2E0,4E0],"tree_param":{"num_deleted":"0","num_feature":"3","num_nodes":"37","size_leaf_vector":"1"}},{"base_weights":[3.4223154E-1,-4.476466E0,1.3069212E1,-5.074014E0,2.066174E0,-3.3373778E0,1.3930636E1,-4.8695736E0,-3.858381E0,4.662752E0,-3.2457223E0,6.7918806E0,1.520062E1,-1.6294286E0,-3.7509208E0,5.7806112E-2,-1.6041917E0,-2.9969425E0,1.3264563E1,1.2475501E1,5.4607615E0,1.1597027E1,-1.6338722E0,4.6357155E-2,-1.2296818E0,4.808463E0,6.0793953E0,1.3923149E1,-2.4716177E0,-3.591156E-2,4.662752E0,-9.799027E-1,3.7156308E0,2.3819337E0,5.175124E0],"categories":[],"categories_nodes":[],"categories_segments":[],"categories_sizes":[],"default_left":[0,0,0,0,0,0,0,0,0,0,0,0,0,0,0,0,0,0,0,0,0,0,0,0,0,0,0,0,0,0,0,0,0,0,0],"id":2,"left_children":[1,3,5,7,9,-1,11,13,-1,-1,15,17,19,-1,21,-1,-1,23,25,27,-1,29,-1,-1,-1,-1,31,33,-1,-1,-1,-1,-1,-1,-1],"loss_changes":[9.380279E3,4.4444287E2,1.0302998E3,9.9758545E1,7.662955E2,0E0,2.6846924E2,4.310791E1,0E0,0E0,5.883918E1,5.466327E2,5.105371E1,0E0,1.0258882E3,0E0,0E0,1.4525009E1,1.8444824E0,7.444341E2,0E0,1.8677307E2,0E0,0E0,0E0,0E0,2.1725885E2,2.6120068E2,0E0,0E0,0E0,0E0,0E0,0E0,0E0],"parents":[2147483647,0,0,1,1,2,2,3,3,4,4,6,6,7,7,10,10,11,11,12,12,14,14,17,17,18,18,19,19,21,21,26,26,27,27],"right_children":[2,4,6,8,10,-1,12,14,-1,-1,16,18,20,-1,22,-1,-1,24,26,28,-1,30,-1,-1,-1,-1,32,34,-1,-1,-1,-1,-1,-1,-1],"split_conditions":[5.84E0,4.05E0,2E0,1.55E0,4.54E0,-3.3373778E0,1.3E1,2.59E0,-3.858381E0,4.662752E0,1.19E0,1.1205E2,1.93E0,-1.6294286E0,3.34E0,5.7806112E-2,-1.6041917E0,1.2E1,1.1E1,1.55E0,5.4607615E0,1.8E1,-1.6338722E0,4.6357155E-2,-1.2296818E0,4.808463E0,2E0,4.8E1,-2.4716177E0,-3.591156E-2,4.662752E0,-9.799027E-1,3.7156308E0,2.3819337E0,5.175124E0],"split_indices":[1,1,0,2,1,0,0,1,0,0,2,1,2,0,1,0,0,0,0,2,0,0,0,0,0,0,2,0,0,0,0,0,0,0,0],"split_type":[0,0,0,0,0,0,0,0,0,0,0,0,0,0,0,0,0,0,0,0,0,0,0,0,0,0,0,0,0,0,0,0,0,0,0],"sum_hessian":[1.51E2,1.1E2,4.1E1,1.01E2,9E0,1E0,4E1,1E2,1E0,2E0,7E0,7E0,3.3E1,6.4E1,3.6E1,3E0,4E0,3E0,4E0,2E1,1.3E1,3E0,3.3E1,1E0,2E0,2E0,2E0,1.9E1,1E0,1E0,2E0,1E0,1E0,8E0,1.1E1],"tree_param":{"num_deleted":"0","num_feature":"3","num_nodes":"35","size_leaf_vector":"1"}},{"base_weights":[3.3292544E-1,-3.1279263E0,9.471536E0,-3.5762687E0,1.7579578E0,-2.836771E0,1.0163813E1,-3.3952005E0,-3.279624E0,3.730202E0,-2.4653049E0,8.200239E0,3.8158143E0,-1.2146127E0,-2.7514303E0,4.4799328E-2,-1.2191858E0,1.0166621E1,-4.88046E-2,5.2463454E-1,-1.1733507E0,1.4545831E1,7.4452157E0,-2.1955311E0,2.8980918E0,-6.792115E-1,3.730202E0,5.1123323E0,-6.38752E-2,-1.9558616E0,3.0285428E0],"categories":[],"categories_nodes":[],"categories_segments":[],"categories_sizes":[],"default_left":[0,0,0,0,0,0,0,0,0,0,0,0,0,0,0,0,0,0,0,0,0,0,0,0,0,0,0,0,0,0,0],"id":3,"left_children":[1,3,5,7,9,-1,11,13,-1,-1,15,17,-1,-1,19,-1,-1,21,23,25,-1,27,29,-1,-1,-1,-1,-1,-1,-1,-1],"loss_changes":[4.8369873E3,2.4943787E2,6.464348E2,9.873767E1,4.8153116E2,0E0,1.0143799E2,3.1351807E1,0E0,0E0,3.4045933E1,4.2223645E2,0E0,0E0,2.0721838E2,0E0,0E0,1.419729E2,4.9418835E2,5.2632117E2,0E0,2.6141858E2,6.2089935E2,0E0,0E0,0E0,0E0,0E0,0E0,0E0,0E0],"parents":[2147483647,0,0,1,1,2,2,3,3,4,4,6,6,7,7,10,10,11,11,14,14,17,17,18,18,19,19,21,21,22,22],"right_children":[2,4,6,8,10,-1,12,14,-1,-1,16,18,-1,-1,20,-1,-1,22,24,26,-1,28,30,-1,-1,-1,-1,-1,-1,-1,-1],"split_conditions":[5.84E0,4.05E0,2E0,1.55E0,4.54E0,-2.836771E0,4.8E1,2.14E0,-3.279624E0,3.730202E0,1.19E0,3.5E1,3.8158143E0,-1.2146127E0,9E-1,4.4799328E-2,-1.2191858E0,1.55E0,1.25E0,2.6E0,-1.1733507E0,1.7E1,2E0,-2.1955311E0,2.8980918E0,-6.792115E-1,3.730202E0,5.1123323E0,-6.38752E-2,-1.9558616E0,3.0285428E0],"split_indices":[1,1,0,2,1,0,0,1,0,0,2,0,0,0,2,0,0,2,2,1,0,0,2,0,0,0,0,0,0,0,0],"split_type":[0,0,0,0,0,0,0,0,0,0,0,0,0,0,0,0,0,0,0,0,0,0,0,0,0,0,0,0,0,0,0],"sum_hessian":[1.51E2,1.1E2,4.1E1,1.01E2,9E0,1E0,4E1,1E2,1E0,2E0,7E0,2.5E1,1.5E1,4.7E1,5.3E1,3E0,4E0,2E1,5E0,1.4E1,3.9E1,6E0,1.4E1,3E0,2E0,1.2E1,2E0,5E0,1E0,2E0,1.2E1],"tree_param":{"num_deleted":"0","num_feature":"3","num_nodes":"31","size_leaf_vector":"1"}},{"base_weights":[2.8398195E-1,-2.190096E0,6.8158545E0,-2.5290408E0,1.4861515E0,-2.4112554E0,7.374169E0,-2.3700755E0,-2.7876804E0,2.9841614E0,-1.8725123E0,3.2620268E0,8.124845E0,-1.8877757E0,-9.007935E-1,3.4719374E-2,-9.2658144E-1,-4.665098E0,8.951322E0,3.601445E0,6.674303E0,-2.6079295E0,2.6539085E0,-4.1487753E-1,-1.5894544E0,3.8117638E0,3.3321316E0,-1.807496E0,7.394468E0,-8.376296E-1,-4.0245667E-2,2.2548318E0,-5.39538E-1,1.4014316E0,2.9274468E0],"categories":[],"categories_nodes":[],"categories_segments":[],"categories_sizes":[],"default_left":[0,0,0,0,0,0,0,0,0,0,0,0,0,0,0,0,0,0,0,0,0,0,0,0,0,0,0,0,0,0,0,0,0,0,0],"id":4,"left_children":[1,3,5,7,9,-1,11,13,-1,-1,15,17,19,21,-1,-1,-1,23,25,-1,27,29,-1,-1,-1,31,-1,-1,33,-1,-1,-1,-1,-1,-1],"loss_changes":[2.4713025E3,1.4206964E2,4.0756982E2,8.763867E1,3.028046E2,0E0,1.0005859E2,2.5145569E1,0E0,0E0,1.970055E1,4.025568E2,1.1123047E2,4.8688446E2,0E0,0E0,0E0,9.8456573E-1,1.3061188E1,0E0,2.9148218E2,2.5594269E1,0E0,0E0,0E0,7.586398E1,0E0,0E0,1.217616E2,0E0,0E0,0E0,0E0,0E0,0E0],"parents":[2147483647,0,0,1,1,2,2,3,3,4,4,6,6,7,7,10,10,11,11,12,12,13,13,17,17,18,18,20,20,21,21,25,25,28,28],"right_children":[2,4,6,8,10,-1,12,14,-1,-1,16,18,20,22,-1,-1,-1,24,26,-1,28,30,-1,-1,-1,32,-1,-1,34,-1,-1,-1,-1,-1,-1],"split_conditions":[5.84E0,4.05E0,2E0,1.55E0,4.54E0,-2.4112554E0,1.3E1,2.5E1,-2.7876804E0,2.9841614E0,1.19E0,1.1205E2,2.3E1,1.9E1,-9.007935E-1,3.4719374E-2,-9.2658144E-1,1.2E1,2E0,3.601445E0,2.6E1,3.48E0,2.6539085E0,-4.1487753E-1,-1.5894544E0,1.1E1,3.3321316E0,-1.807496E0,1.3E0,-8.376296E-1,-4.0245667E-2,2.2548318E0,-5.39538E-1,1.4014316E0,2.9274468E0],"split_indices":[1,1,0,2,1,0,0,0,0,0,2,1,0,0,0,0,0,0,2,0,0,1,0,0,0,0,0,0,2,0,0,0,0,0,0],"split_type":[0,0,0,0,0,0,0,0,0,0,0,0,0,0,0,0,0,0,0,0,0,0,0,0,0,0,0,0,0,0,0,0,0,0,0],"sum_hessian":[1.51E2,1.1E2,4.1E1,1.01E2,9E0,1E0,4E1,1E2,1E0,2E0,7E0,7E0,3.3E1,5.9E1,4.1E1,3E0,4E0,3E0,4E0,7E0,2.6E1,5.6E1,3E0,1E0,2E0,2E0,2E0,1E0,2.5E1,5.2E1,4E0,1E0,1E0,1.3E1,1.2E1],"tree_param":{"num_deleted":"0","num_feature":"3","num_nodes":"35","size_leaf_vector":"1"}},{"base_weights":[2.4440902E-1,-1.5314469E0,4.9319234E0,-1.7890782E0,1.2495369E0,-2.0495672E0,5.385477E0,-1.6503873E0,-2.3695285E0,2.387329E0,-1.4222403E0,6.155756E0,2.3820362E0,-6.745671E-1,-1.3132781E0,2.6907923E-2,-7.042017E-1,2.7874684E0,4.7233396E0,-1.1299953E0,5.555281E0,1.5254015E0,-1.5883638E0,-3.039042E-1,2.1767867E0,2.0325181E0,-2.6450902E-1,-1.758135E-1,-6.369898E-1,-2.2280352E0,2.063927E0],"categories":[],"categories_nodes":[],"categories_segments":[],"categories_sizes":[],"default_left":[0,0,0,0,0,0,1,0,0,0,0,0,0,0,0,0,0,0,0,0,0,0,0,0,0,0,0,0,0,0,0],"id":5,"left_children":[1,3,5,7,9,-1,11,13,-1,-1,15,17,19,-1,21,-1,-1,-1,23,-1,25,-1,27,29,-1,-1,-1,-1,-1,-1,-1],"loss_changes":[1.2728542E3,8.176352E1,2.608849E2,7.339026E1,1.9054674E2,0E0,8.018982E1,1.7413513E1,0E0,0E0,1.140004E1,9.984973E1,2.1603772E2,0E0,1.2599526E2,0E0,0E0,0E0,3.0777502E2,0E0,6.093538E1,0E0,3.360707E1,5.116096E2,0E0,0E0,0E0,0E0,0E0,0E0,0E0],"parents":[2147483647,0,0,1,1,2,2,3,3,4,4,6,6,7,7,10,10,11,11,12,12,14,14,18,18,20,20,22,22,23,23],"right_children":[2,4,6,8,10,-1,12,14,-1,-1,16,18,20,-1,22,-1,-1,-1,24,-1,26,-1,28,30,-1,-1,-1,-1,-1,-1,-1],"split_conditions":[5.84E0,4.05E0,2E0,1.55E0,4.54E0,-2.0495672E0,8.13E0,9E0,-2.3695285E0,2.387329E0,1.19E0,1.7E1,1.3E1,-6.745671E-1,1.1E1,2.6907923E-2,-7.042017E-1,2.7874684E0,4.8E1,-1.1299953E0,2.8E1,1.5254015E0,2.5E1,1.93E0,2.1767867E0,2.0325181E0,-2.6450902E-1,-1.758135E-1,-6.369898E-1,-2.2280352E0,2.063927E0],"split_indices":[1,1,0,2,1,0,1,0,0,0,2,0,0,0,0,0,0,0,0,0,0,0,0,2,0,0,0,0,0,0,0],"split_type":[0,0,0,0,0,0,0,0,0,0,0,0,0,0,0,0,0,0,0,0,0,0,0,0,0,0,0,0,0,0,0],"sum_hessian":[1.51E2,1.1E2,4.1E1,1.01E2,9E0,1E0,4E1,1E2,1E0,2E0,7E0,3.1E1,9E0,3.4E1,6.6E1,3E0,4E0,8E0,2.3E1,3E0,6E0,2E0,6.4E1,8E0,1.5E1,5E0,1E0,2.3E1,4.1E1,4E0,4E0],"tree_param":{"num_deleted":"0","num_feature":"3","num_nodes":"31","size_leaf_vector":"1"}},{"base_weights":[1.8929066E-1,-1.2752129E0,3.1145864E0,-1.154895E0,-2.0140991E0,-4.01854E0,3.6441262E0,-1.4593477E0,-5.888321E-1,-4.459946E-1,-1.7421322E0,4.517241E0,1.7862554E0,-1.325502E0,-6.1888486E-1,6.593644E0,-1.4165107E0,2.1062326E0,3.3901978E0,-1.9152094E0,3.4881332E0,-4.5669252E-1,-1.2858984E-1,2.2337323E-1,2.488542E0,-6.656378E-1,-5.104919E-1,-2.3096806E-1,1.564565E0,1.8536378E-2,-2.9191551E0,-1.091816E0,5.1360955E0,-3.8910437E-1,7.921793E-1,1.102073E0,-4.4007507E-1,-1.6933068E0,1.5685841E0,-1.8314667E-1,-1.0455643E0,-4.459946E-1,1.3902283E-2,1.7896405E0,-2.2483292E-1],"categories":[],"categories_nodes":[],"categories_segments":[],"categories_sizes":[],"default_left":[0,0,0,0,0,0,1,0,0,0,0,0,0,0,0,0,0,0,0,0,0,0,0,0,0,0,0,0,0,0,0,0,0,0,0,0,0,0,0,0,0,0,0,0,0],"id":6,"left_children":[1,3,5,7,-1,9,11,13,15,-1,-1,17,19,21,-1,23,25,-1,27,29,31,-1,33,-1,-1,35,-1,37,-1,-1,39,41,43,-1,-1,-1,-1,-1,-1,-1,-1,-1,-1,-1,-1],"loss_changes":[6.551559E2,5.898944E1,2.0728516E2,1.6546967E1,0E0,9.480705E0,6.979352E1,2.5168915E0,2.2929689E2,0E0,0E0,6.6489075E1,1.13770996E2,1.2995605E1,0E0,3.363231E1,6.1465683E0,0E0,1.598132E2,1.2089153E1,9.6178696E1,0E0,3.2545174E1,0E0,0E0,4.3634968E1,0E0,2.9550565E2,0E0,0E0,3.0996819E0,1.8664184E0,4.8402527E1,0E0,0E0,0E0,0E0,0E0,0E0,0E0,0E0,0E0,0E0,0E0,0E0],"parents":[2147483647,0,0,1,1,2,2,3,3,5,5,6,6,7,7,8,8,11,11,12,12,13,13,15,15,16,16,18,18,19,19,20,20,22,22,25,25,27,27,30,30,31,31,32,32],"right_children":[2,4,6,8,-1,10,12,14,16,-1,-1,18,20,22,-1,24,26,-1,28,30,32,-1,34,-1,-1,36,-1,38,-1,-1,40,42,44,-1,-1,-1,-1,-1,-1,-1,-1,-1,-1,-1,-1],"split_conditions":[4.05E0,1.55E0,5E0,2.59E0,-2.0140991E0,5.82E0,5.04E0,2.41E0,3.34E0,-4.459946E-1,-1.7421322E0,2.1E1,1.4E1,2.14E0,-6.1888486E-1,1.8E1,9.1E-1,2.1062326E0,4.8E1,5.42E0,5.84E0,-4.5669252E-1,6E0,2.2337323E-1,2.488542E0,1.1E1,-5.104919E-1,1.93E0,1.564565E0,1.8536378E-2,1.2E1,5.82E0,2.8E1,-3.8910437E-1,7.921793E-1,1.102073E0,-4.4007507E-1,-1.6933068E0,1.5685841E0,-1.8314667E-1,-1.0455643E0,-4.459946E-1,1.3902283E-2,1.7896405E0,-2.2483292E-1],"split_indices":[1,2,0,1,0,1,1,1,1,0,0,0,0,1,0,0,2,0,0,1,1,0,0,0,0,0,0,2,0,0,0,1,0,0,0,0,0,0,0,0,0,0,0,0,0],"split_type":[0,0,0,0,0,0,0,0,0,0,0,0,0,0,0,0,0,0,0,0,0,0,0,0,0,0,0,0,0,0,0,0,0,0,0,0,0,0,0,0,0,0,0,0,0],"sum_hessian":[1.51E2,1.01E2,5E1,1E2,1E0,3E0,4.7E1,6.4E1,3.6E1,2E0,1E0,3.1E1,1.6E1,5.5E1,9E0,3E0,3.3E1,8E0,2.3E1,5E0,1.1E1,4.7E1,8E0,1E0,2E0,1E1,2.3E1,8E0,1.5E1,2E0,3E0,3E0,8E0,6E0,2E0,1E0,9E0,4E0,4E0,1E0,2E0,2E0,1E0,7E0,1E0],"tree_param":{"num_deleted":"0","num_feature":"3","num_nodes":"45","size_leaf_vector":"1"}},{"base_weights":[1.4209072E-1,-8.909157E-1,2.2053175E0,-7.867344E-1,-1.7119843E0,-3.3600092E0,2.6231506E0,-1.0318902E0,-3.3479238E-1,-3.567955E-1,-1.4808123E0,3.2728827E0,1.2458224E0,-9.2880946E-1,-4.5178586E-1,5.2935305E0,-9.8710114E-1,5.148568E0,2.4331305E0,-1.5423418E0,2.536086E0,-1.075131E0,-4.5226414E-2,1.8986721E-1,1.9908341E0,-4.0576503E-1,-3.6372533E-1,1.8709271E0,2.2296429E0,-1.7553456E-1,1.1245303E0,1.4829255E-2,-2.350586E0,-8.722935E-1,3.769134E0,-3.6376464E-1,-2.6615718E-1,-2.8904885E-1,6.337435E-1,9.367619E-1,-3.2125485E-1,-1.1926627E0,1.6869656E0,-1.2869134E0,1.1921246E0,-1.5567456E-1,-8.3645135E-1,-3.567955E-1,1.1817169E-2,1.3198597E0,-1.9110776E-1],"categories":[],"categories_nodes":[],"categories_segments":[],"categories_sizes":[],"default_left":[0,0,0,0,0,0,1,0,0,0,0,0,0,0,0,0,0,0,0,0,0,0,0,0,0,0,0,0,0,0,0,0,0,0,0,0,0,0,0,0,0,0,0,0,0,0,0,0,0,0,0],"id":7,"left_children":[1,3,5,7,-1,9,11,13,15,-1,-1,17,19,21,-1,23,25,27,29,31,33,35,37,-1,-1,39,-1,-1,41,43,-1,-1,45,47,49,-1,-1,-1,-1,-1,-1,-1,-1,-1,-1,-1,-1,-1,-1,-1,-1],"loss_changes":[3.259264E2,4.6684395E1,1.27408066E2,1.084494E1,0E0,7.8137894E0,3.8877502E1,1.7775955E0,1.4106721E2,0E0,0E0,3.7876404E1,6.506845E1,7.1914673E0,0E0,2.0829239E1,3.9615173E0,1.4673325E1,8.3006454E1,7.835436E0,5.372013E1,1.639061E-1,1.9867556E1,0E0,0E0,2.9156591E1,0E0,0E0,1.06586395E2,1.7068419E2,0E0,0E0,1.7592239E0,1.202954E0,2.7801338E1,0E0,0E0,0E0,0E0,0E0,0E0,0E0,0E0,0E0,0E0,0E0,0E0,0E0,0E0,0E0,0E0],"parents":[2147483647,0,0,1,1,2,2,3,3,5,5,6,6,7,7,8,8,11,11,12,12,13,13,15,15,16,16,17,17,18,18,19,19,20,20,21,21,22,22,25,25,28,28,29,29,32,32,33,33,34,34],"right_children":[2,4,6,8,-1,10,12,14,16,-1,-1,18,20,22,-1,24,26,28,30,32,34,36,38,-1,-1,40,-1,-1,42,44,-1,-1,46,48,50,-1,-1,-1,-1,-1,-1,-1,-1,-1,-1,-1,-1,-1,-1,-1,-1],"split_conditions":[4.05E0,1.55E0,5E0,2.59E0,-1.7119843E0,5.82E0,5.04E0,2.41E0,3.34E0,-3.567955E-1,-1.4808123E0,2.1E1,1.4E1,2.14E0,-4.5178586E-1,1.8E1,9.1E-1,1.55E0,4.8E1,5.42E0,5.84E0,1.9E1,6E0,1.8986721E-1,1.9908341E0,1.1E1,-3.6372533E-1,1.8709271E0,2E0,1.93E0,1.1245303E0,1.4829255E-2,1.2E1,5.82E0,2.8E1,-3.6376464E-1,-2.6615718E-1,-2.8904885E-1,6.337435E-1,9.367619E-1,-3.2125485E-1,-1.1926627E0,1.6869656E0,-1.2869134E0,1.1921246E0,-1.5567456E-1,-8.3645135E-1,-3.567955E-1,1.1817169E-2,1.3198597E0,-1.9110776E-1],"split_indices":[1,2,0,1,0,1,1,1,1,0,0,0,0,1,0,0,2,2,0,1,1,0,0,0,0,0,0,0,2,2,0,0,0,1,0,0,0,0,0,0,0,0,0,0,0,0,0,0,0,0,0],"split_type":[0,0,0,0,0,0,0,0,0,0,0,0,0,0,0,0,0,0,0,0,0,0,0,0,0,0,0,0,0,0,0,0,0,0,0,0,0,0,0,0,0,0,0,0,0,0,0,0,0,0,0],"sum_hessian":[1.51E2,1.01E2,5E1,1E2,1E0,3E0,4.7E1,6.4E1,3.6E1,2E0,1E0,3.1E1,1.6E1,5.5E1,9E0,3E0,3.3E1,8E0,2.3E1,5E0,1.1E1,4.7E1,8E0,1E0,2E0,1E1,2.3E1,5E0,3E0,8E0,1.5E1,2E0,3E0,3E0,8E0,2.4E1,2.3E1,6E0,2E0,1E0,9E0,1E0,2E0,4E0,4E0,1E0,2E0,2E0,1E0,7E0,1E0],"tree_param":{"num_deleted":"0","num_feature":"3","num_nodes":"51","size_leaf_vector":"1"}},{"base_weights":[1.0832766E-1,-6.238031E-1,1.5704651E0,-5.3392744E-1,-1.4551866E0,-2.811408E0,1.9029031E0,-7.33662E-1,-1.6861188E-1,-2.8543627E-1,-1.2586905E0,1.6445186E0,1.3002008E0,-6.5526026E-1,-3.2980365E-1,4.2506447E0,-6.8356526E-1,-1.1800175E0,2.1093194E0,-7.6571554E-1,6.640964E-3,1.6138688E-1,1.5926667E0,-2.280804E-1,-2.591542E-1,2.0240223E0,-2.866438E0,1.1258948E0,1.4131261E0,-2.5900063E-1,-1.8963699E-1,-2.147219E-1,5.0699466E-1,7.962476E-1,-2.3451605E-1,8.897781E-3,9.0191233E-1,-1.0087526E0,-1.3232346E-1,-4.556539E-2,8.0825704E-1],"categories":[],"categories_nodes":[],"categories_segments":[],"categories_sizes":[],"default_left":[0,0,0,0,0,0,0,0,0,0,0,0,0,0,0,0,0,0,0,0,0,0,0,0,0,0,1,0,0,0,0,0,0,0,0,0,0,0,0,0,0],"id":8,"left_children":[1,3,5,7,-1,9,11,13,15,-1,-1,17,-1,19,-1,21,23,25,27,29,31,-1,-1,33,-1,35,37,-1,39,-1,-1,-1,-1,-1,-1,-1,-1,-1,-1,-1,-1],"loss_changes":[1.6369196E2,3.6158703E1,7.964162E1,7.24588E0,0E0,6.3064365E0,2.3024231E1,1.1432076E0,8.7106895E1,0E0,0E0,6.1567146E1,0E0,4.09927E0,0E0,1.2859772E1,2.5949087E0,4.362524E1,3.9324554E1,8.024597E-2,1.2153704E1,0E0,0E0,1.9627752E1,0E0,5.788333E0,4.5326195E0,0E0,5.855069E1,0E0,0E0,0E0,0E0,0E0,0E0,0E0,0E0,0E0,0E0,0E0,0E0],"parents":[2147483647,0,0,1,1,2,2,3,3,5,5,6,6,7,7,8,8,11,11,13,13,15,15,16,16,17,17,18,18,19,19,20,20,23,23,25,25,26,26,28,28],"right_children":[2,4,6,8,-1,10,12,14,16,-1,-1,18,-1,20,-1,22,24,26,28,30,32,-1,-1,34,-1,36,38,-1,40,-1,-1,-1,-1,-1,-1,-1,-1,-1,-1,-1,-1],"split_conditions":[4.05E0,1.55E0,5E0,2.59E0,-1.4551866E0,5.82E0,4.75E0,2.41E0,3.34E0,-2.8543627E-1,-1.2586905E0,1.3E1,1.3002008E0,2.14E0,-3.2980365E-1,1.8E1,9.1E-1,1.1E1,2.3E1,1.9E1,6E0,1.6138688E-1,1.5926667E0,1.1E1,-2.591542E-1,1E1,6.863E1,1.1258948E0,4.8E1,-2.5900063E-1,-1.8963699E-1,-2.147219E-1,5.0699466E-1,7.962476E-1,-2.3451605E-1,8.897781E-3,9.0191233E-1,-1.0087526E0,-1.3232346E-1,-4.556539E-2,8.0825704E-1],"split_indices":[1,2,0,1,0,1,2,1,1,0,0,0,0,1,0,0,2,0,0,0,0,0,0,0,0,0,1,0,0,0,0,0,0,0,0,0,0,0,0,0,0],"split_type":[0,0,0,0,0,0,0,0,0,0,0,0,0,0,0,0,0,0,0,0,0,0,0,0,0,0,0,0,0,0,0,0,0,0,0,0,0,0,0,0,0],"sum_hessian":[1.51E2,1.01E2,5E1,1E2,1E0,3E0,4.7E1,6.4E1,3.6E1,2E0,1E0,4.4E1,3E0,5.5E1,9E0,3E0,3.3E1,6E0,3.8E1,4.7E1,8E0,1E0,2E0,1E1,2.3E1,2E0,4E0,1E1,2.8E1,2.4E1,2.3E1,6E0,2E0,1E0,9E0,1E0,1E0,3E0,1E0,1.3E1,1.5E1],"tree_param":{"num_deleted":"0","num_feature":"3","num_nodes":"41","size_leaf_vector":"1"}},{"base_weights":[8.58927E-2,-3.7371278E-1,1.2985193E0,-3.0214602E-1,-1.2369086E0,-1.0698869E0,1.5041558E0,-5.2104324E-1,1.3733656E-2,1.2693415E0,1.0076557E0,-2.7524287E-1,-6.093233E-1,3.6204247E0,-4.1596133E-1,-1.0104612E0,1.6453862E0,-4.5293066E-1,4.3847066E-1,-2.5447553E-1,-4.3177283E-1,1.3717861E-1,1.28907E0,-1.0713768E-1,-6.43115E-1,7.66626E-1,-2.2347214E0,3.1688004E0,1.2601765E0,-8.871838E-2,-1.7318243E-1,1.6992246E-1,-1.4629531E-1,6.768105E-1,-1.091281E-1,-1.4718093E-1,-3.0566502E-1,-7.8178316E-1,-1.1247483E-1,1.0452145E0,2.3888399E-1,1.3355957E-1,6.4988697E-1],"categories":[],"categories_nodes":[],"categories_segments":[],"categories_sizes":[],"default_left":[0,0,0,0,0,0,0,0,0,0,0,0,0,0,0,0,0,0,0,0,0,0,0,0,0,0,1,1,0,0,0,0,0,0,0,0,0,0,0,0,0,0,0],"id":9,"left_children":[1,3,5,7,-1,-1,9,11,13,15,-1,17,19,21,23,25,27,29,-1,-1,31,-1,-1,33,35,-1,37,39,41,-1,-1,-1,-1,-1,-1,-1,-1,-1,-1,-1,-1,-1,-1],"loss_changes":[8.51994E1,2.8538473E1,4.7380318E1,7.6131268E0,0E0,0E0,1.3592346E1,1.2427425E0,7.279569E1,3.424029E1,0E0,6.525584E0,1.6275749E0,8.7342E0,2.8774152E0,3.1904049E1,1.5372269E1,1.8113399E-1,0E0,0E0,1.8937287E0,0E0,0E0,1.2343083E1,8.755522E-1,0E0,2.4749966E0,1.7133217E0,1.9712513E1,0E0,0E0,0E0,0E0,0E0,0E0,0E0,0E0,0E0,0E0,0E0,0E0,0E0,0E0],"parents":[2147483647,0,0,1,1,2,2,3,3,6,6,7,7,8,8,9,9,11,11,12,12,13,13,14,14,15,15,16,16,17,17,20,20,23,23,24,24,26,26,27,27,28,28],"right_children":[2,4,6,8,-1,-1,10,12,14,16,-1,18,20,22,24,26,28,30,-1,-1,32,-1,-1,34,36,-1,38,40,42,-1,-1,-1,-1,-1,-1,-1,-1,-1,-1,-1,-1,-1,-1],"split_conditions":[5.84E0,2.13E0,2E0,2.59E0,-1.2369086E0,-1.0698869E0,4.75E0,1.1E1,9E-1,1.3E1,1.0076557E0,9E0,1.9E1,1.8E1,1.03E0,1.1E1,1.7E1,1.49E0,4.3847066E-1,-2.5447553E-1,2.1E1,1.3717861E-1,1.28907E0,3.77E0,3.96E0,7.66626E-1,6.863E1,5.747E1,8E1,-8.871838E-2,-1.7318243E-1,1.6992246E-1,-1.4629531E-1,6.768105E-1,-1.091281E-1,-1.4718093E-1,-3.0566502E-1,-7.8178316E-1,-1.1247483E-1,1.0452145E0,2.3888399E-1,1.3355957E-1,6.4988697E-1],"split_indices":[1,2,0,1,0,0,2,0,2,0,0,0,0,0,2,0,0,1,0,0,0,0,0,1,1,0,1,1,0,0,0,0,0,0,0,0,0,0,0,0,0,0,0],"split_type":[0,0,0,0,0,0,0,0,0,0,0,0,0,0,0,0,0,0,0,0,0,0,0,0,0,0,0,0,0,0,0,0,0,0,0,0,0,0,0,0,0,0,0],"sum_hessian":[1.51E2,1.1E2,4.1E1,1.09E2,1E0,1E0,4E1,6.4E1,4.5E1,3.7E1,3E0,1.8E1,4.6E1,4E0,4.1E1,5E0,3.2E1,1.7E1,1E0,1.8E1,2.8E1,1E0,3E0,1.8E1,2.3E1,1E0,4E0,5E0,2.7E1,9E0,8E0,1E0,2.7E1,1E0,1.7E1,1.8E1,5E0,3E0,1E0,4E0,1E0,1.5E1,1.2E1],"tree_param":{"num_deleted":"0","num_feature":"3","num_nodes":"43","size_leaf_vector":"1"}},{"base_weights":[7.412219E-2,-3.1663156E-1,8.541763E-1,-2.50369E-1,-1.0513722E0,-1.9337122E0,1.068705E0,-1.7392983E-1,-5.931759E-1,-1.6721573E-1,-9.094038E-1,9.2212653E-1,8.8800204E-1,-3.655655E-1,4.5758265E-1,-3.0974165E-1,-1.3094556E-1,-6.0171616E-1,1.1657459E0,-3.1127688E-1,-1.8990761E-1,-1.05452664E-1,2.955159E0,1.501255E0,-1.7431557E0,2.300375E0,7.6213175E-1,-1.13726944E-1,2.5493495E-2,1.16601564E-1,1.0498838E0,2.3932459E-2,6.516323E-1,-6.058817E-1,-9.560338E-2,2.5214043E-1,7.68088E-1,4.7771074E-3,5.8269024E-1],"categories":[],"categories_nodes":[],"categories_segments":[],"categories_sizes":[],"default_left":[0,0,0,0,0,0,0,0,0,0,0,0,0,0,0,0,0,0,0,0,0,0,0,0,1,0,0,0,0,0,0,0,0,0,0,0,0,0,0],"id":10,"left_children":[1,3,5,7,-1,9,11,13,15,-1,-1,17,-1,19,21,-1,-1,23,25,27,-1,-1,29,31,33,35,37,-1,-1,-1,-1,-1,-1,-1,-1,-1,-1,-1,-1],"loss_changes":[4.660144E1,2.0669155E1,3.256876E1,2.5434213E0,0E0,4.35318E0,1.0577259E1,1.0332984E1,7.8834677E-1,0E0,0E0,1.777837E1,0E0,7.467556E-1,4.145412E1,0E0,0E0,1.941982E1,1.65649E1,1.537003E0,0E0,0E0,5.6264687E0,2.687532E0,1.3253813E0,1.6427231E0,2.7269272E1,0E0,0E0,0E0,0E0,0E0,0E0,0E0,0E0,0E0,0E0,0E0,0E0],"parents":[2147483647,0,0,1,1,2,2,3,3,5,5,6,6,7,7,8,8,11,11,13,13,14,14,17,17,18,18,19,19,22,22,23,23,24,24,25,25,26,26],"right_children":[2,4,6,8,-1,10,12,14,16,-1,-1,18,-1,20,22,-1,-1,24,26,28,-1,-1,30,32,34,36,38,-1,-1,-1,-1,-1,-1,-1,-1,-1,-1,-1,-1],"split_conditions":[4.05E0,1.55E0,5E0,3.77E0,-1.0513722E0,5.82E0,4.9E0,2.59E0,1.8E1,-1.6721573E-1,-9.094038E-1,1.3E1,8.8800204E-1,2.41E0,8E0,-3.0974165E-1,-1.3094556E-1,1.1E1,2.1E1,2.14E0,-1.8990761E-1,-1.05452664E-1,2.6E0,1E1,6.863E1,1.4E1,1.93E0,-1.13726944E-1,2.5493495E-2,1.16601564E-1,1.0498838E0,2.3932459E-2,6.516323E-1,-6.058817E-1,-9.560338E-2,2.5214043E-1,7.68088E-1,4.7771074E-3,5.8269024E-1],"split_indices":[1,2,0,1,0,1,2,1,0,0,0,0,0,1,0,0,0,0,0,1,0,0,1,0,1,0,2,0,0,0,0,0,0,0,0,0,0,0,0],"split_type":[0,0,0,0,0,0,0,0,0,0,0,0,0,0,0,0,0,0,0,0,0,0,0,0,0,0,0,0,0,0,0,0,0,0,0,0,0,0,0],"sum_hessian":[1.51E2,1.01E2,5E1,1E2,1E0,3E0,4.7E1,8.3E1,1.7E1,2E0,1E0,4.5E1,2E0,6.4E1,1.9E1,3E0,1.4E1,6E0,3.9E1,5.5E1,9E0,1.5E1,4E0,2E0,4E0,9E0,3E1,4.7E1,8E0,1E0,3E0,1E0,1E0,3E0,1E0,2E0,7E0,1.9E1,1.1E1],"tree_param":{"num_deleted":"0","num_feature":"3","num_nodes":"39","size_leaf_vector":"1"}},{"base_weights":[5.638592E-2,-7.9694554E-2,1.5175306E0,-2.5200185E-1,1.181823E0,5.663137E-1,2.1269417E-1,-1.1032591E-1,-2.6042533E0,-4.110227E-2,1.8526098E0,1.1428833E-1,-4.3815996E-2,1.8128231E-1,-5.2465755E-1,-3.544821E0,4.5587313E-1,-1.8303938E-1,1.614607E-1,7.389768E-1,5.0449565E-2,-2.5935423E-2,7.1877825E-1,-3.0789608E-1,-8.6587507E-1,-1.2360039E0,-1.00329496E-1,-6.430692E-2,6.8339634E-1,-7.553058E-2,-2.5028774E-1],"categories":[],"categories_nodes":[],"categories_segments":[],"categories_sizes":[],"default_left":[0,0,0,0,0,0,0,0,0,0,0,0,0,0,0,1,0,0,0,0,0,0,0,0,0,0,0,0,0,0,0],"id":11,"left_children":[1,3,5,7,9,-1,11,13,15,17,19,-1,-1,21,23,25,-1,-1,-1,-1,-1,27,-1,29,-1,-1,-1,-1,-1,-1,-1],"loss_changes":[3.0343594E1,3.0729439E1,5.877838E0,4.1036606E1,1.4021624E1,0E0,2.9710197E-1,1.4352167E1,3.2537827E1,2.6358616E0,1.0900356E1,0E0,0E0,3.21861E1,2.4194546E1,9.701668E0,0E0,0E0,0E0,0E0,0E0,2.8705286E1,0E0,1.149035E0,0E0,0E0,0E0,0E0,0E0,0E0,0E0],"parents":[2147483647,0,0,1,1,2,2,3,3,4,4,6,6,7,7,8,8,9,9,10,10,13,13,14,14,15,15,21,21,23,23],"right_children":[2,4,6,8,10,-1,12,14,16,18,20,-1,-1,22,24,26,-1,-1,-1,-1,-1,28,-1,30,-1,-1,-1,-1,-1,-1,-1],"split_conditions":[8E1,2.5E0,1.02E0,1.55E0,1.1205E2,5.663137E-1,1.55E0,2.5E1,2.6E1,1.3E1,4.4E1,1.1428833E-1,-4.3815996E-2,5.82E0,3.364E1,4.54E0,4.5587313E-1,-1.8303938E-1,1.614607E-1,7.389768E-1,5.0449565E-2,1.9E1,7.1877825E-1,1.1E0,-8.6587507E-1,-1.2360039E0,-1.00329496E-1,-6.430692E-2,6.8339634E-1,-7.553058E-2,-2.5028774E-1],"split_indices":[0,2,2,2,1,0,2,0,0,0,0,0,0,1,1,1,0,0,0,0,0,0,0,2,0,0,0,0,0,0,0],"split_type":[0,0,0,0,0,0,0,0,0,0,0,0,0,0,0,0,0,0,0,0,0,0,0,0,0,0,0,0,0,0,0],"sum_hessian":[1.51E2,1.39E2,1.2E1,1.23E2,1.6E1,9E0,3E0,1.17E2,6E0,6E0,1E1,2E0,1E0,6.9E1,4.8E1,5E0,1E0,3E0,3E0,7E0,3E0,6.4E1,5E0,4.5E1,3E0,4E0,1E0,6E1,4E0,4.2E1,3E0],"tree_param":{"num_deleted":"0","num_feature":"3","num_nodes":"31","size_leaf_vector":"1"}},{"base_weights":[4.3880135E-2,-5.5546597E-2,1.1112542E0,-1.8232308E-1,8.724435E-1,4.1340867E-1,1.665039E-1,-7.598953E-2,-1.9487569E0,-3.1854358E-2,1.3685927E0,9.143067E-2,-3.7243653E-2,1.460095E-1,-3.915802E-1,-2.7040968E0,3.874924E-1,-1.4185554E-1,1.25132E-1,5.449957E-1,3.9097596E-2,-7.941577E-2,1.3623283E0,-2.2260989E-1,-6.710531E-1,-9.3936294E-1,-8.527994E-2,-5.928407E-2,6.69664E-1,6.318985E-1,1.1738206E-1,-5.339824E-2,-1.9397308E-1],"categories":[],"categories_nodes":[],"categories_segments":[],"categories_sizes":[],"default_left":[0,0,0,0,0,0,0,0,0,0,0,0,0,0,0,1,0,0,0,0,0,0,1,0,0,0,0,0,0,0,0,0,0],"id":12,"left_children":[1,3,5,7,9,-1,11,13,15,17,19,-1,-1,21,23,25,-1,-1,-1,-1,-1,27,29,31,-1,-1,-1,-1,-1,-1,-1,-1,-1],"loss_changes":[1.6192804E1,1.6629692E1,3.0470123E0,2.3142982E1,7.67093E0,0E0,1.9858223E-1,8.324351E0,2.0625937E1,1.5831641E0,5.8662357E0,0E0,0E0,1.930142E1,1.4779996E1,5.311142E0,0E0,0E0,0E0,0E0,0E0,1.683488E1,7.122963E0,7.5503135E-1,0E0,0E0,0E0,0E0,0E0,0E0,0E0,0E0,0E0],"parents":[2147483647,0,0,1,1,2,2,3,3,4,4,6,6,7,7,8,8,9,9,10,10,13,13,14,14,15,15,21,21,22,22,23,23],"right_children":[2,4,6,8,10,-1,12,14,16,18,20,-1,-1,22,24,26,-1,-1,-1,-1,-1,28,30,32,-1,-1,-1,-1,-1,-1,-1,-1,-1],"split_conditions":[8E1,2.5E0,1.02E0,1.55E0,1.1205E2,4.1340867E-1,1.55E0,2.5E1,2.6E1,1.3E1,4.4E1,9.143067E-2,-3.7243653E-2,4.05E0,3.364E1,4.54E0,3.874924E-1,-1.4185554E-1,1.25132E-1,5.449957E-1,3.9097596E-2,2.1E1,5.04E0,1.1E0,-6.710531E-1,-9.3936294E-1,-8.527994E-2,-5.928407E-2,6.69664E-1,6.318985E-1,1.1738206E-1,-5.339824E-2,-1.9397308E-1],"split_indices":[0,2,2,2,1,0,2,0,0,0,0,0,0,1,1,1,0,0,0,0,0,0,1,2,0,0,0,0,0,0,0,0,0],"split_type":[0,0,0,0,0,0,0,0,0,0,0,0,0,0,0,0,0,0,0,0,0,0,0,0,0,0,0,0,0,0,0,0,0],"sum_hessian":[1.51E2,1.39E2,1.2E1,1.23E2,1.6E1,9E0,3E0,1.17E2,6E0,6E0,1E1,2E0,1E0,6.9E1,4.8E1,5E0,1E0,3E0,3E0,7E0,3E0,5.9E1,1E1,4.5E1,3E0,4E0,1E0,5.7E1,2E0,5E0,5E0,4.2E1,3E0],"tree_param":{"num_deleted":"0","num_feature":"3","num_nodes":"33","size_leaf_vector":"1"}},{"base_weights":[3.6236275E-2,-1.2081139E0,8.677957E-2,-1.2208843E-1,-6.76033E-1,-6.7563504E-2,4.7424594E-1,-5.10025E-4,-7.2488025E-2,-4.141855E-2,-4.9640974E-1,3.8455644E-1,1.5120239E0,-8.562431E-2,4.2935333E-1,1.2381364E-2,-1.8366005E-1,1.7150804E-1,8.138486E-1,1.3529892E-1,5.451119E-1,-1.2010656E-2,-2.5453535E-1,4.8905212E-1,-5.532019E-1,3.0178893E-1,1.3010025E-1,-3.95044E-2,1.4282337E-1,-1.2947837E-1,-3.879358E-2,3.0995837E-1,3.497275E-2,-5.200662E-1,9.776993E-2,7.314453E-2,-3.165665E-2],"categories":[],"categories_nodes":[],"categories_segments":[],"categories_sizes":[],"default_left":[0,0,0,0,0,0,0,0,0,0,0,0,0,0,0,0,0,0,0,0,0,0,0,0,0,0,0,0,0,0,0,0,0,0,0,0,0],"id":13,"left_children":[1,3,5,7,-1,9,11,-1,-1,13,15,17,19,21,-1,-1,-1,23,25,-1,-1,27,29,31,33,-1,35,-1,-1,-1,-1,-1,-1,-1,-1,-1,-1],"loss_changes":[9.664661E0,6.5364065E0,8.823047E0,5.7153292E-2,0E0,1.1679292E0,3.3278074E0,0E0,0E0,6.6973653E0,3.988161E-1,3.5188189E0,1.5141153E-1,1.2279245E0,0E0,0E0,0E0,6.71411E0,1.5767775E0,0E0,0E0,4.151383E0,6.0934854E-1,3.9331574E0,9.90381E0,0E0,1.3290295E-1,0E0,0E0,0E0,0E0,0E0,0E0,0E0,0E0,0E0,0E0],"parents":[2147483647,0,0,1,1,2,2,3,3,5,5,6,6,9,9,10,10,11,11,12,12,13,13,17,17,18,18,21,21,22,22,23,23,24,24,26,26],"right_children":[2,4,6,8,-1,10,12,-1,-1,14,16,18,20,22,-1,-1,-1,24,26,-1,-1,28,30,32,34,-1,36,-1,-1,-1,-1,-1,-1,-1,-1,-1,-1],"split_conditions":[2E0,2.13E0,5.82E0,9E-2,-6.76033E-1,4.54E0,4.9E0,-5.10025E-4,-7.2488025E-2,4.05E0,1.03E0,8E1,1.1E1,9.1E-1,4.2935333E-1,1.2381364E-2,-1.8366005E-1,3.5E1,1.02E0,1.3529892E-1,5.451119E-1,2.59E0,1.02E0,1.55E0,1.25E0,3.0178893E-1,1.55E0,-3.95044E-2,1.4282337E-1,-1.2947837E-1,-3.879358E-2,3.0995837E-1,3.497275E-2,-5.200662E-1,9.776993E-2,7.314453E-2,-3.165665E-2],"split_indices":[0,2,1,1,0,1,2,0,0,1,2,0,0,2,0,0,0,0,2,0,0,1,2,2,2,0,2,0,0,0,0,0,0,0,0,0,0],"split_type":[0,0,0,0,0,0,0,0,0,0,0,0,0,0,0,0,0,0,0,0,0,0,0,0,0,0,0,0,0,0,0,0,0,0,0,0,0],"sum_hessian":[1.51E2,5E0,1.46E2,3E0,2E0,1.05E2,4.1E1,2E0,1E0,1E2,5E0,3.9E1,2E0,9.8E1,2E0,1E0,4E0,2.7E1,1.2E1,1E0,1E0,6.9E1,2.9E1,1.9E1,8E0,9E0,3E0,5.6E1,1.3E1,1.1E1,1.8E1,7E0,1.2E1,3E0,5E0,2E0,1E0],"tree_param":{"num_deleted":"0","num_feature":"3","num_nodes":"37","size_leaf_vector":"1"}},{"base_weights":[2.7934028E-2,-9.7051835E-1,6.849716E-2,-1.03711605E-1,-5.408264E-1,-1.0680251E-2,6.02465E-1,-4.081726E-4,-6.1614707E-2,3.01611E-2,-5.208212E-1,-5.4662976E-2,9.099597E-1,-3.532962E-2,6.6072464E-1,-1.1780692E-1,8.9108855E-2,1.5060457E0,1.838793E-1,1.2434589E-1,-2.723925E-1,2.2030611E-1,5.8515932E-2,1.1500397E-1,4.8878136E-1,5.361557E-1,-6.426239E-2,7.3975846E-3,3.550701E-1,-4.456058E-2,-3.8492593E-1,2.6817858E-1,-2.6908495E-2,-6.479988E-2,8.301545E-3],"categories":[],"categories_nodes":[],"categories_segments":[],"categories_sizes":[],"default_left":[0,0,0,0,0,0,0,0,0,0,0,0,0,0,0,0,0,0,0,0,0,0,0,0,0,0,0,0,0,0,0,0,0,0,0],"id":14,"left_children":[1,3,5,7,-1,9,11,-1,-1,13,-1,15,17,19,21,-1,-1,23,25,27,29,-1,-1,-1,-1,31,33,-1,-1,-1,-1,-1,-1,-1,-1],"loss_changes":[6.222532E0,4.1413608E0,6.221328E0,4.134498E-2,0E0,9.142639E0,3.8889446E0,0E0,0E0,5.267943E0,0E0,9.4881064E-1,5.349554E0,4.4248347E0,2.6820517E-1,0E0,0E0,3.438406E-1,6.4635587E-1,7.3621755E0,5.69296E0,0E0,0E0,0E0,0E0,7.51918E-1,7.57263E-2,0E0,0E0,0E0,0E0,0E0,0E0,0E0,0E0],"parents":[2147483647,0,0,1,1,2,2,3,3,5,5,6,6,9,9,11,11,12,12,13,13,14,14,17,17,18,18,19,19,20,20,25,25,26,26],"right_children":[2,4,6,8,-1,10,12,-1,-1,14,-1,16,18,20,22,-1,-1,24,26,28,30,-1,-1,-1,-1,32,34,-1,-1,-1,-1,-1,-1,-1,-1],"split_conditions":[2E0,2.13E0,2E0,9E-2,-5.408264E-1,1.55E0,1.1205E2,-4.081726E-4,-6.1614707E-2,7.5E1,-5.208212E-1,1.3E1,3.5E1,2.7E1,1.02E0,-1.1780692E-1,8.9108855E-2,1.1E1,3.74E0,5.82E0,5.84E0,2.2030611E-1,5.8515932E-2,1.1500397E-1,4.8878136E-1,4.4E1,4E1,7.3975846E-3,3.550701E-1,-4.456058E-2,-3.8492593E-1,2.6817858E-1,-2.6908495E-2,-6.479988E-2,8.301545E-3],"split_indices":[0,2,2,1,0,2,1,0,0,0,0,0,0,0,2,0,0,0,2,1,1,0,0,0,0,0,0,0,0,0,0,0,0,0,0],"split_type":[0,0,0,0,0,0,0,0,0,0,0,0,0,0,0,0,0,0,0,0,0,0,0,0,0,0,0,0,0,0,0,0,0,0,0],"sum_hessian":[1.51E2,5E0,1.46E2,3E0,2E0,1.28E2,1.8E1,2E0,1E0,1.26E2,2E0,6E0,1.2E1,1.15E2,1.1E1,3E0,3E0,6E0,6E0,6.9E1,4.6E1,9E0,2E0,1E0,5E0,2E0,4E0,6.4E1,5E0,4.2E1,4E0,1E0,1E0,1E0,3E0],"tree_param":{"num_deleted":"0","num_feature":"3","num_nodes":"35","size_leaf_vector":"1"}},{"base_weights":[1.8553944E-2,-7.7983767E-1,5.101514E-2,-8.810377E-2,-4.3266112E-1,-9.871224E-3,4.617165E-1,-3.265381E-4,-5.237246E-2,2.2780966E-2,-4.166571E-1,-4.2364936E-2,6.976283E-1,-2.5307935E-2,4.8574194E-1,-3.0433464E-1,6.9058806E-2,1.0150961E0,-1.3339234E-2,9.222069E-2,-1.998121E-1,1.6082336E-1,4.6812437E-2,-2.0103265E-2,-1.0833168E-1,1.1404845E0,3.841578E-1,6.433869E-3,-2.2872163E-2,-6.7935656E-3,2.131135E-1,-3.150307E-2,-2.925437E-1,9.7753145E-2,3.6658517E-1,-5.5080418E-2,2.2795144E-1],"categories":[],"categories_nodes":[],"categories_segments":[],"categories_sizes":[],"default_left":[0,0,0,0,0,0,0,0,0,0,0,0,0,0,0,0,0,0,0,0,0,0,0,0,0,0,0,0,0,0,0,0,0,0,0,0,0],"id":15,"left_children":[1,3,5,7,-1,9,11,-1,-1,13,-1,15,17,19,21,23,-1,25,27,29,31,-1,-1,-1,-1,33,35,-1,-1,-1,-1,-1,-1,-1,-1,-1,-1],"loss_changes":[3.9791293E0,2.6220226E0,3.6804562E0,2.9907212E-2,0E0,5.84011E0,2.289012E0,0E0,0E0,2.8397303E0,0E0,5.6987554E-1,2.94776E0,2.397498E0,1.1549926E-1,2.9694378E-2,0E0,2.7388573E-1,1.25753265E-2,4.986453E0,3.3522444E0,0E0,0E0,0E0,0E0,6.639385E-2,7.793951E-1,0E0,0E0,0E0,0E0,0E0,0E0,0E0,0E0,0E0,0E0],"parents":[2147483647,0,0,1,1,2,2,3,3,5,5,6,6,9,9,11,11,12,12,13,13,14,14,15,15,17,17,18,18,19,19,20,20,25,25,26,26],"right_children":[2,4,6,8,-1,10,12,-1,-1,14,-1,16,18,20,22,24,-1,26,28,30,32,-1,-1,-1,-1,34,36,-1,-1,-1,-1,-1,-1,-1,-1,-1,-1],"split_conditions":[2E0,2.13E0,2E0,9E-2,-4.3266112E-1,1.55E0,1.1205E2,-3.265381E-4,-5.237246E-2,7.5E1,-4.166571E-1,1.3E1,4.4E1,2.7E1,1.02E0,1.2E1,6.9058806E-2,3.5E1,8E1,1.8E1,5.84E0,1.6082336E-1,4.6812437E-2,-2.0103265E-2,-1.0833168E-1,1.1E1,4E1,6.433869E-3,-2.2872163E-2,-6.7935656E-3,2.131135E-1,-3.150307E-2,-2.925437E-1,9.7753145E-2,3.6658517E-1,-5.5080418E-2,2.2795144E-1],"split_indices":[0,2,2,1,0,2,1,0,0,0,0,0,0,0,2,0,0,0,0,0,1,0,0,0,0,0,0,0,0,0,0,0,0,0,0,0,0],"split_type":[0,0,0,0,0,0,0,0,0,0,0,0,0,0,0,0,0,0,0,0,0,0,0,0,0,0,0,0,0,0,0,0,0,0,0,0,0],"sum_hessian":[1.51E2,5E0,1.46E2,3E0,2E0,1.28E2,1.8E1,2E0,1E0,1.26E2,2E0,6E0,1.2E1,1.15E2,1.1E1,3E0,3E0,8E0,4E0,6.9E1,4.6E1,9E0,2E0,1E0,2E0,6E0,2E0,3E0,1E0,5.9E1,1E1,4.2E1,4E0,1E0,5E0,1E0,1E0],"tree_param":{"num_deleted":"0","num_feature":"3","num_nodes":"37","size_leaf_vector":"1"}},{"base_weights":[1.1338758E-2,-2.2991563E-1,9.0959005E-2,-1.465418E-1,-3.4612888E-1,1.1043879E0,2.504193E-2,-9.8234534E-2,-1.2792E-1,1.0590935E-2,1.5249611E0,-1.5284534E-1,1.57354E-1,2.394443E-2,-1.3995855E-1,5.303155E-1,8.308983E-2,-1.1045461E-1,-6.492154E-3,1.3178892E0,7.736241E-2,-2.6130676E-4,9.347699E-3,-5.8112845E-2,-3.029287E-2,1.335289E-2,-3.1325687E-2,9.613667E-2,4.6306458E-1,4.0816065E-2,3.3503953E-1,-2.9382134E-2,9.894328E-3,-7.3146164E-2,4.3017797E-2],"categories":[],"categories_nodes":[],"categories_segments":[],"categories_sizes":[],"default_left":[0,0,0,0,0,0,0,0,0,0,0,0,0,0,0,0,0,0,0,0,0,0,0,0,0,0,0,0,0,0,0,0,0,0,0],"id":16,"left_children":[1,3,5,7,-1,9,11,13,-1,-1,15,17,19,21,23,-1,-1,-1,25,27,29,-1,-1,-1,-1,31,-1,-1,-1,33,-1,-1,-1,-1,-1],"loss_changes":[2.9406402E0,2.7578638E0,7.654604E0,4.4480348E-1,0E0,3.093563E0,2.5895438E0,1.6648069E-1,0E0,0E0,1.0252018E0,1.4788246E0,5.746527E0,1.6384339E-3,3.0728012E-2,0E0,0E0,0E0,5.7751775E-2,4.056821E-1,2.233672E0,0E0,0E0,0E0,0E0,5.7842385E-2,0E0,0E0,0E0,1.7575881E0,0E0,0E0,0E0,0E0,0E0],"parents":[2147483647,0,0,1,1,2,2,3,3,5,5,6,6,7,7,10,10,11,11,12,12,13,13,14,14,18,18,19,19,20,20,25,25,29,29],"right_children":[2,4,6,8,-1,10,12,14,-1,-1,16,18,20,22,24,-1,-1,-1,26,28,30,-1,-1,-1,-1,32,-1,-1,-1,34,-1,-1,-1,-1,-1],"split_conditions":[8E0,2.13E0,1.1E1,3.48E0,-3.4612888E-1,1E1,2.59E0,1.49E0,-1.2792E-1,1.0590935E-2,1.55E0,1.9E1,3.34E0,2E0,2.53E0,5.303155E-1,8.308983E-2,-1.1045461E-1,2.24E0,1.8E1,4.9E0,-2.6130676E-4,9.347699E-3,-5.8112845E-2,-3.029287E-2,2.7E1,-3.1325687E-2,9.613667E-2,4.6306458E-1,3.96E0,3.3503953E-1,-2.9382134E-2,9.894328E-3,-7.3146164E-2,4.3017797E-2],"split_indices":[0,2,0,1,0,0,1,1,0,0,2,0,1,0,1,0,0,0,1,0,2,0,0,0,0,0,0,0,0,1,0,0,0,0,0],"split_type":[0,0,0,0,0,0,0,0,0,0,0,0,0,0,0,0,0,0,0,0,0,0,0,0,0,0,0,0,0,0,0,0,0,0,0],"sum_hessian":[1.51E2,3.7E1,1.14E2,3.5E1,2E0,6E0,1.08E2,3.1E1,4E0,2E0,4E0,4.6E1,6.2E1,8E0,2.3E1,3E0,1E0,1.8E1,2.8E1,3E0,5.9E1,2E0,6E0,8E0,1.5E1,2.4E1,4E0,1E0,2E0,5.8E1,1E0,3E0,2.1E1,1.5E1,4.3E1],"tree_param":{"num_deleted":"0","num_feature":"3","num_nodes":"35","size_leaf_vector":"1"}},{"base_weights":[1.3026491E-2,-2.5958228E-3,7.898E-1,-1.7550337E-1,5.557305E-2,7.062607E-2,2.8478396E-1,-1.08336024E-1,-2.7690312E-1,9.274419E-1,6.6213254E-3,-7.124305E-2,-3.2406387E-1,8.4728245E-3,4.1099426E-1,-2.507136E-1,5.410037E-2,1.7770555E-2,-1.01654686E-1,-2.5328638E-2,-1.08859636E-1,-1.0817649E-1,-4.388842E-1,-5.19132E-3,3.848106E-1,-2.0904542E-4,6.943948E-3,-4.261602E-2,-2.17731E-2,-1.9907255E-1,4.1162684E-3,-2.3540499E-2,-1.4576264E-1,-1.81443E-2,8.4048755E-2,2.7920473E-1,2.201809E-2],"categories":[],"categories_nodes":[],"categories_segments":[],"categories_sizes":[],"default_left":[0,0,0,0,0,0,0,0,0,0,0,0,0,0,0,1,1,0,0,0,0,0,0,0,0,0,0,0,0,0,0,0,0,0,0,0,0],"id":17,"left_children":[1,3,5,7,9,-1,-1,11,-1,13,15,17,19,-1,-1,21,23,25,27,-1,-1,29,31,33,35,-1,-1,-1,-1,-1,-1,-1,-1,-1,-1,-1,-1],"loss_changes":[1.8465701E0,1.5184287E0,4.1757345E-2,1.807911E0,4.816641E0,0E0,0E0,2.649843E-1,0E0,2.3488913E0,1.3331093E0,8.8432044E-2,1.5854776E-2,0E0,0E0,4.0848494E-1,1.8059673E0,9.0964395E-4,1.7883018E-2,0E0,0E0,7.538229E-1,8.042896E-2,1.2633371E0,2.3116062E0,0E0,0E0,0E0,0E0,0E0,0E0,0E0,0E0,0E0,0E0,0E0,0E0],"parents":[2147483647,0,0,1,1,2,2,3,3,4,4,7,7,9,9,10,10,11,11,12,12,15,15,16,16,17,17,18,18,21,21,22,22,23,23,24,24],"right_children":[2,4,6,8,10,-1,-1,12,-1,14,16,18,20,-1,-1,22,24,26,28,-1,-1,30,32,34,36,-1,-1,-1,-1,-1,-1,-1,-1,-1,-1,-1,-1],"split_conditions":[4.9E0,8E0,1.1E1,2.13E0,1.1E1,7.062607E-2,2.8478396E-1,3.48E0,-2.7690312E-1,1E1,1.5E1,1.49E0,2E0,8.4728245E-3,4.1099426E-1,2.41E0,4.05E0,2E0,2.53E0,-2.5328638E-2,-1.08859636E-1,1.2E1,1.2E1,8E1,1.9E1,-2.0904542E-4,6.943948E-3,-4.261602E-2,-2.17731E-2,-1.9907255E-1,4.1162684E-3,-2.3540499E-2,-1.4576264E-1,-1.81443E-2,8.4048755E-2,2.7920473E-1,2.201809E-2],"split_indices":[2,0,0,2,0,0,0,1,0,0,0,1,0,0,0,1,1,0,1,0,0,0,0,0,0,0,0,0,0,0,0,0,0,0,0,0,0],"split_type":[0,0,0,0,0,0,0,0,0,0,0,0,0,0,0,0,0,0,0,0,0,0,0,0,0,0,0,0,0,0,0,0,0,0,0,0,0],"sum_hessian":[1.51E2,1.49E2,2E0,3.7E1,1.12E2,1E0,1E0,3.5E1,2E0,5E0,1.07E2,3.1E1,4E0,2E0,3E0,1.6E1,9.1E1,8E0,2.3E1,1E0,3E0,1E1,6E0,7.8E1,1.3E1,2E0,6E0,8E0,1.5E1,1E0,9E0,1E0,5E0,6.6E1,1.2E1,4E0,9E0],"tree_param":{"num_deleted":"0","num_feature":"3","num_nodes":"37","size_leaf_vector":"1"}},{"base_weights":[1.1151555E-2,-2.1263734E-3,6.7133075E-1,-3.9340395E-1,1.4079087E-2,6.0032275E-2,2.4206658E-1,-3.6299706E-2,-2.215225E-1,-9.114184E-3,1.8924691E-1,-1.6708375E-4,-2.1529198E-2,1.5955497E-2,-3.202078E-1,4.3568724E-1,-1.4245939E-1,-7.4473084E-3,2.40853E-1,-2.3409525E-2,5.5338764E-1,-2.2630997E-1,-6.093979E-4,2.2713862E-2,-3.681039E-2,8.309579E-2,1.203766E-2,-3.2455444E-2,2.1921158E-2,2.0073298E-1,-3.8500216E-2,-2.0009423E-2,-7.486153E-2],"categories":[],"categories_nodes":[],"categories_segments":[],"categories_sizes":[],"default_left":[0,0,0,0,0,0,0,0,0,0,0,0,0,0,0,0,0,0,0,0,0,0,0,0,0,0,0,0,0,0,0,0,0],"id":18,"left_children":[1,3,5,7,9,-1,-1,11,-1,13,15,-1,-1,17,-1,19,21,23,25,27,29,31,-1,-1,-1,-1,-1,-1,-1,-1,-1,-1,-1],"loss_changes":[1.333831E0,9.566638E-1,3.0169368E-2,7.124111E-1,5.9081846E-1,0E0,0E0,5.030397E-3,0E0,3.4393833E0,1.4517466E0,0E0,0E0,6.702242E-1,0E0,5.533134E-1,9.374009E-2,1.1210971E0,7.5920284E-2,3.244249E-2,7.169926E-1,1.8939376E-3,0E0,0E0,0E0,0E0,0E0,0E0,0E0,0E0,0E0,0E0,0E0],"parents":[2147483647,0,0,1,1,2,2,3,3,4,4,7,7,9,9,10,10,13,13,15,15,16,16,17,17,18,18,19,19,20,20,21,21],"right_children":[2,4,6,8,10,-1,-1,12,-1,14,16,-1,-1,18,-1,20,22,24,26,28,30,32,-1,-1,-1,-1,-1,-1,-1,-1,-1,-1,-1],"split_conditions":[4.9E0,2E0,1.1E1,2.13E0,2E0,6.0032275E-2,2.4206658E-1,9E-2,-2.215225E-1,1.55E0,3.75E0,-1.6708375E-4,-2.1529198E-2,7.5E1,-3.202078E-1,2E1,4E1,2.5E1,1.02E0,1.6E1,4.4E1,1.2E1,-6.093979E-4,2.2713862E-2,-3.681039E-2,8.309579E-2,1.203766E-2,-3.2455444E-2,2.1921158E-2,2.0073298E-1,-3.8500216E-2,-2.0009423E-2,-7.486153E-2],"split_indices":[2,0,0,2,2,0,0,1,0,2,2,0,0,0,0,0,0,0,2,0,0,0,0,0,0,0,0,0,0,0,0,0,0],"split_type":[0,0,0,0,0,0,0,0,0,0,0,0,0,0,0,0,0,0,0,0,0,0,0,0,0,0,0,0,0,0,0,0,0],"sum_hessian":[1.51E2,1.49E2,2E0,5E0,1.44E2,1E0,1E0,3E0,2E0,1.28E2,1.6E1,2E0,1E0,1.26E2,2E0,9E0,7E0,1.15E2,1.1E1,2E0,7E0,4E0,3E0,6.7E1,4.8E1,9E0,2E0,1E0,1E0,6E0,1E0,1E0,3E0],"tree_param":{"num_deleted":"0","num_feature":"3","num_nodes":"33","size_leaf_vector":"1"}},{"base_weights":[6.989458E-3,-1.420817E-1,5.6186974E-2,-1.00747906E-1,-1.77218E-1,6.4876205E-1,1.761622E-2,-7.224691E-2,-2.630047E-1,7.452011E-3,9.037956E-1,5.078298E-3,2.0575677E-1,-1.9183689E-3,-9.560982E-2,-1.8299676E-2,-8.947692E-2,-8.139611E-4,4.1673663E-3,3.1340992E-1,5.1026918E-2,-1.381838E-1,5.4538302E-2,-1.335144E-4,-6.8272185E-4,-3.7309013E-2,-2.2038102E-2,-2.6838443E-1,1.23015784E-1,4.9423912E-1,-1.4352503E-2,-4.0815808E-2,-1.5972835E-1,1.7080627E-1,-8.083067E-2,-3.6935046E-2,3.0876657E-1,-1.9314787E-1,3.9671776E-3],"categories":[],"categories_nodes":[],"categories_segments":[],"categories_sizes":[],"default_left":[0,0,0,0,0,0,0,0,0,0,0,0,0,0,0,0,0,0,0,0,0,0,0,0,0,0,0,0,0,0,0,0,0,0,0,0,0,0,0],"id":19,"left_children":[1,3,5,7,-1,9,11,13,15,17,19,21,-1,23,25,-1,-1,-1,-1,-1,-1,27,29,-1,-1,-1,-1,31,33,35,37,-1,-1,-1,-1,-1,-1,-1,-1],"loss_changes":[1.1227406E0,6.4516497E-1,2.617019E0,1.4748001E-1,0E0,1.138154E0,9.0975565E-1,5.2395135E-2,1.7411917E-2,2.3405753E-4,3.3921766E-1,7.7279663E-1,0E0,3.7258797E-6,6.1492473E-3,0E0,0E0,0E0,0E0,0E0,0E0,9.852493E-1,2.4606922E0,0E0,0E0,0E0,0E0,5.91447E-1,1.9050658E0,3.7597373E0,1.2409769E0,0E0,0E0,0E0,0E0,0E0,0E0,0E0,0E0],"parents":[2147483647,0,0,1,1,2,2,3,3,5,5,6,6,7,7,8,8,9,9,10,10,11,11,13,13,14,14,21,21,22,22,27,27,28,28,29,29,30,30],"right_children":[2,4,6,8,-1,10,12,14,16,18,20,22,-1,24,26,-1,-1,-1,-1,-1,-1,28,30,-1,-1,-1,-1,32,34,36,38,-1,-1,-1,-1,-1,-1,-1,-1],"split_conditions":[8E0,2.13E0,1.1E1,3.48E0,-1.77218E-1,1E1,4.9E0,1.49E0,2E0,9E0,1.55E0,1.8E1,2.0575677E-1,2E0,2.53E0,-1.8299676E-2,-8.947692E-2,-8.139611E-4,4.1673663E-3,3.1340992E-1,5.1026918E-2,5.42E0,2.5E1,-1.335144E-4,-6.8272185E-4,-3.7309013E-2,-2.2038102E-2,7.5E-1,1.32E0,5.1E-1,2.6E1,-4.0815808E-2,-1.5972835E-1,1.7080627E-1,-8.083067E-2,-3.6935046E-2,3.0876657E-1,-1.9314787E-1,3.9671776E-3],"split_indices":[0,2,0,1,0,0,2,1,0,0,2,0,0,0,1,0,0,0,0,0,0,1,0,0,0,0,0,2,2,2,0,0,0,0,0,0,0,0,0],"split_type":[0,0,0,0,0,0,0,0,0,0,0,0,0,0,0,0,0,0,0,0,0,0,0,0,0,0,0,0,0,0,0,0,0,0,0,0,0,0,0],"sum_hessian":[1.51E2,3.7E1,1.14E2,3.5E1,2E0,6E0,1.08E2,3.1E1,4E0,2E0,4E0,1.07E2,1E0,8E0,2.3E1,1E0,3E0,1E0,1E0,3E0,1E0,2.7E1,8E1,2E0,6E0,8E0,1.5E1,1.8E1,9E0,1E1,7E1,1.3E1,5E0,4E0,5E0,5E0,5E0,2E0,6.8E1],"tree_param":{"num_deleted":"0","num_feature":"3","num_nodes":"39","size_leaf_vector":"1"}},{"base_weights":[6.211379E-3,-3.406527E-3,4.8503622E-1,-1.0854034E-1,3.1978354E-2,4.3373108E-2,1.748932E-1,-7.5188585E-2,-1.4177442E-1,5.429287E-1,3.296128E-3,-5.245304E-2,-2.0565835E-1,6.3349404E-3,8.0964184E-1,-1.4022233E-1,2.9780015E-2,-1.4334784E-3,-6.939983E-2,-1.555481E-2,-6.9344476E-2,-6.917954E-4,3.5425187E-3,2.8323403E-1,6.093407E-2,-6.1602447E-2,5.7131957E-2,1.6555768E-1,-1.2711377E-2,-1.0681153E-4,-5.0713675E-4,-2.7359774E-2,-1.5840054E-2,-7.595978E-2,1.0452576E-1,-5.563535E-2,1.4205581E-1,-1.8318783E-2,7.6972134E-2],"categories":[],"categories_nodes":[],"categories_segments":[],"categories_sizes":[],"default_left":[0,0,0,0,0,0,0,0,0,0,0,0,0,0,0,0,0,0,0,0,0,0,0,0,0,0,0,0,0,0,0,0,0,0,0,0,0,0,0],"id":20,"left_children":[1,3,5,7,9,-1,-1,11,-1,13,15,17,19,21,23,25,27,29,31,-1,-1,-1,-1,-1,-1,-1,33,35,37,-1,-1,-1,-1,-1,-1,-1,-1,-1,-1],"loss_changes":[7.0165676E-1,5.614931E-1,1.5749633E-2,4.258408E-1,1.6542473E0,0E0,0E0,9.599942E-2,0E0,8.535706E-1,4.1467592E-1,2.7568288E-2,7.617995E-3,1.6911709E-4,1.3448095E-1,2.3020783E-1,5.3288764E-1,1.8900319E-6,3.869377E-3,0E0,0E0,0E0,0E0,0E0,0E0,0E0,5.401971E-1,2.4659543E0,9.4010615E-1,0E0,0E0,0E0,0E0,0E0,0E0,0E0,0E0,0E0,0E0],"parents":[2147483647,0,0,1,1,2,2,3,3,4,4,7,7,9,9,10,10,11,11,12,12,13,13,14,14,15,15,16,16,17,17,18,18,26,26,27,27,28,28],"right_children":[2,4,6,8,10,-1,-1,12,-1,14,16,18,20,22,24,26,28,30,32,-1,-1,-1,-1,-1,-1,-1,34,36,38,-1,-1,-1,-1,-1,-1,-1,-1,-1,-1],"split_conditions":[4.9E0,8E0,1.1E1,2.13E0,1.1E1,4.3373108E-2,1.748932E-1,3.48E0,-1.4177442E-1,1E1,1.5E1,1.49E0,2E0,9E0,3.77E0,5.747E1,2.5E1,2E0,2.53E0,-1.555481E-2,-6.9344476E-2,-6.917954E-4,3.5425187E-3,2.8323403E-1,6.093407E-2,-6.1602447E-2,1.2E1,2.53E0,1.93E0,-1.0681153E-4,-5.0713675E-4,-2.7359774E-2,-1.5840054E-2,-7.595978E-2,1.0452576E-1,-5.563535E-2,1.4205581E-1,-1.8318783E-2,7.6972134E-2],"split_indices":[2,0,0,2,0,0,0,1,0,0,0,1,0,0,1,1,0,0,1,0,0,0,0,0,0,0,0,1,2,0,0,0,0,0,0,0,0,0,0],"split_type":[0,0,0,0,0,0,0,0,0,0,0,0,0,0,0,0,0,0,0,0,0,0,0,0,0,0,0,0,0,0,0,0,0,0,0,0,0,0,0],"sum_hessian":[1.51E2,1.49E2,2E0,3.7E1,1.12E2,1E0,1E0,3.5E1,2E0,5E0,1.07E2,3.1E1,4E0,2E0,3E0,1.6E1,9.1E1,8E0,2.3E1,1E0,3E0,1E0,1E0,2E0,1E0,1.2E1,4E0,2.1E1,7E1,2E0,6E0,8E0,1.5E1,2E0,2E0,1E1,1.1E1,6E1,1E1],"tree_param":{"num_deleted":"0","num_feature":"3","num_nodes":"39","size_leaf_vector":"1"}},{"base_weights":[7.0239515E-3,-1.1279909E-3,4.1227975E-1,3.8310234E-2,-8.837155E-2,3.686714E-2,1.4865875E-1,1.9296225E-2,6.4533696E-2,-1.4786312E-1,9.746742E-2,4.1314688E-2,-2.2531891E-1,-6.5975554E-2,-3.2797343E-1,3.8899383E-1,-9.692001E-2,1.8959533E-2,6.683909E-1,6.2102634E-2,-2.1751672E-1,-1.478201E-1,-9.881814E-3,-4.786118E-1,2.3326619E-1,4.014893E-2,1.5434799E-1,6.509972E-3,-1.169657E-1,1.7398411E-2,-3.951858E-2,2.6611406E-1,3.4661867E-2,-5.6163408E-2,7.006875E-2,-1.9396782E-2,3.971329E-2,-1.9965601E-1,-5.8794368E-2,1.4983636E-1,-4.4866562E-2,-4.2723373E-2,-1.8683625E-2],"categories":[],"categories_nodes":[],"categories_segments":[],"categories_sizes":[],"default_left":[0,0,0,0,0,0,0,0,0,0,0,0,0,0,0,0,0,0,0,0,0,0,0,1,0,0,0,0,0,0,0,0,0,0,0,0,0,0,0,0,0,0,0],"id":21,"left_children":[1,3,5,7,9,-1,-1,11,-1,13,15,17,19,21,23,25,27,29,31,33,-1,-1,35,37,39,-1,-1,-1,41,-1,-1,-1,-1,-1,-1,-1,-1,-1,-1,-1,-1,-1,-1],"loss_changes":[5.0261563E-1,5.1949525E-1,1.1378646E-2,3.4546763E-1,5.340368E-1,0E0,0E0,5.2098364E-1,0E0,5.0931835E-1,7.1773016E-1,1.2209456E0,1.1941088E0,6.1753076E-1,1.0416304E0,9.1260254E-2,2.1560684E-2,5.135034E-1,2.6016378E-1,3.0020955E-1,0E0,0E0,1.9557026E-1,3.4500432E-1,3.8040376E-1,0E0,0E0,0E0,8.7157637E-4,0E0,0E0,0E0,0E0,0E0,0E0,0E0,0E0,0E0,0E0,0E0,0E0,0E0,0E0],"parents":[2147483647,0,0,1,1,2,2,3,3,4,4,7,7,9,9,10,10,11,11,12,12,13,13,14,14,15,15,16,16,17,17,18,18,19,19,22,22,23,23,24,24,28,28],"right_children":[2,4,6,8,10,-1,-1,12,-1,14,16,18,20,22,24,26,28,30,32,34,-1,-1,36,38,40,-1,-1,-1,42,-1,-1,-1,-1,-1,-1,-1,-1,-1,-1,-1,-1,-1,-1],"split_conditions":[4.9E0,1.2E0,1.1E1,7.5E1,3.09E0,3.686714E-2,1.4865875E-1,4.54E0,6.4533696E-2,1.55E0,3.75E0,4.05E0,3E1,1.25E0,2.6E1,2.8E1,1.2E1,3.77E0,1.9E1,5.42E0,-2.1751672E-1,-1.478201E-1,5.82E0,4.54E0,3.5E1,4.014893E-2,1.5434799E-1,6.509972E-3,4E1,1.7398411E-2,-3.951858E-2,2.6611406E-1,3.4661867E-2,-5.6163408E-2,7.006875E-2,-1.9396782E-2,3.971329E-2,-1.9965601E-1,-5.8794368E-2,1.4983636E-1,-4.4866562E-2,-4.2723373E-2,-1.8683625E-2],"split_indices":[2,2,0,0,2,0,0,1,0,2,2,1,0,2,0,0,0,1,0,1,0,0,1,1,0,0,0,0,0,0,0,0,0,0,0,0,0,0,0,0,0,0,0],"split_type":[0,0,0,0,0,0,0,0,0,0,0,0,0,0,0,0,0,0,0,0,0,0,0,0,0,0,0,0,0,0,0,0,0,0,0,0,0,0,0,0,0,0,0],"sum_hessian":[1.51E2,1.49E2,2E0,1.03E2,4.6E1,1E0,1E0,9.4E1,9E0,3.5E1,1.1E1,8.7E1,7E0,2.5E1,1E1,4E0,7E0,8.5E1,2E0,5E0,2E0,2E0,2.3E1,8E0,2E0,2E0,2E0,1E0,6E0,6.8E1,1.7E1,1E0,1E0,2E0,3E0,1.7E1,6E0,4E0,4E0,1E0,1E0,3E0,3E0],"tree_param":{"num_deleted":"0","num_feature":"3","num_nodes":"43","size_leaf_vector":"1"}},{"base_weights":[6.1250697E-3,-8.0203137E-4,3.5043845E-1,2.8158756E-2,-6.486841E-2,3.1337358E-2,1.2635994E-1,-1.3118133E-2,1.4636019E-1,-3.941873E-1,-4.14723E-2,-5.047512E-2,1.2389666E-1,8.7359315E-1,-1.8097421E-2,-1.4096461E-1,-3.641968E-2,-9.280103E-2,1.256166E-1,-2.5854826E-2,-2.4022675E-1,2.0098258E-2,4.710869E-2,6.32349E-2,2.9597998E-1,-3.236653E-1,8.476395E-2,-3.7056616E-1,-3.415464E-2,3.5670167E-1,-5.7389397E-2,-1.1202986E-2,9.090157E-2,3.5128787E-3,-1.7401353E-1,-2.9647065E-2,-1.5466976E-1,2.2619706E-1,3.136018E-4,4.5837022E-2,-1.5173863E-1,-3.506184E-4,-4.271099E-2,1.562891E-1,-4.505196E-2,4.5578005E-3,-2.6838226E-2],"categories":[],"categories_nodes":[],"categories_segments":[],"categories_sizes":[],"default_left":[0,0,0,1,0,0,0,0,0,0,0,0,0,0,0,0,0,1,0,0,0,0,0,0,0,0,0,0,0,0,0,0,0,0,0,0,0,0,0,0,0,0,0,0,0,0,0],"id":22,"left_children":[1,3,5,7,9,-1,-1,11,13,15,17,19,21,23,25,-1,-1,27,29,31,33,-1,-1,-1,-1,35,37,39,41,43,45,-1,-1,-1,-1,-1,-1,-1,-1,-1,-1,-1,-1,-1,-1,-1,-1],"loss_changes":[3.628153E-1,2.8013852E-1,8.220166E-3,5.093347E-1,3.4577692E-1,0E0,0E0,4.0549356E-1,3.2449827E0,4.9027205E-3,3.975981E-1,2.834369E-1,2.153024E-2,1.6655159E-1,7.5035113E-1,0E0,0E0,5.574907E-1,4.856603E-1,2.2288856E-1,6.060802E-1,0E0,0E0,0E0,0E0,2.0793349E-1,1.0076922E0,5.01919E-1,1.0692102E-1,4.9453622E-1,1.7653788E-2,0E0,0E0,0E0,0E0,0E0,0E0,0E0,0E0,0E0,0E0,0E0,0E0,0E0,0E0,0E0,0E0],"parents":[2147483647,0,0,1,1,2,2,3,3,4,4,7,7,8,8,9,9,10,10,11,11,12,12,13,13,14,14,17,17,18,18,19,19,20,20,25,25,26,26,27,27,28,28,29,29,30,30],"right_children":[2,4,6,8,10,-1,-1,12,14,16,18,20,22,24,26,-1,-1,28,30,32,34,-1,-1,-1,-1,36,38,40,42,44,46,-1,-1,-1,-1,-1,-1,-1,-1,-1,-1,-1,-1,-1,-1,-1,-1],"split_conditions":[4.9E0,1.2E0,1.1E1,2.59E0,1.25E0,3.1337358E-2,1.2635994E-1,5.9E1,3.77E0,3.6E1,3.3E1,4E1,7.5E1,2.6E0,1.8E1,-1.4096461E-1,-3.641968E-2,3.34E0,4.4E1,1.02E0,2.53E0,2.0098258E-2,4.710869E-2,6.32349E-2,2.9597998E-1,1E1,1.9E1,1.55E0,1.7E1,3.74E0,1.55E0,-1.1202986E-2,9.090157E-2,3.5128787E-3,-1.7401353E-1,-2.9647065E-2,-1.5466976E-1,2.2619706E-1,3.136018E-4,4.5837022E-2,-1.5173863E-1,-3.506184E-4,-4.271099E-2,1.562891E-1,-4.505196E-2,4.5578005E-3,-2.6838226E-2],"split_indices":[2,2,0,1,2,0,0,0,1,0,0,0,0,1,0,0,0,1,0,2,1,0,0,0,0,0,0,2,0,2,2,0,0,0,0,0,0,0,0,0,0,0,0,0,0,0,0],"split_type":[0,0,0,0,0,0,0,0,0,0,0,0,0,0,0,0,0,0,0,0,0,0,0,0,0,0,0,0,0,0,0,0,0,0,0,0,0,0,0,0,0,0,0,0,0,0,0],"sum_hessian":[1.51E2,1.49E2,2E0,1.03E2,4.6E1,1E0,1E0,7.7E1,2.6E1,2E0,4.4E1,6.1E1,1.6E1,4E0,2.2E1,1E0,1E0,3.4E1,1E1,5.5E1,6E0,7E0,9E0,1E0,3E0,5E0,1.7E1,5E0,2.9E1,4E0,6E0,5.4E1,1E0,4E0,2E0,3E0,2E0,1E0,1.6E1,1E0,4E0,2.3E1,6E0,3E0,1E0,2E0,4E0],"tree_param":{"num_deleted":"0","num_feature":"3","num_nodes":"47","size_leaf_vector":"1"}},{"base_weights":[6.249154E-3,3.7498714E-4,2.9787445E-1,2.3344168E-2,-5.0458413E-2,2.663727E-2,1.07406236E-1,-9.485049E-3,1.1731953E-1,-3.350595E-1,-3.036371E-2,-3.67966E-2,9.067973E-2,6.8335724E-1,-1.0832994E-2,-1.1981993E-1,-3.0956842E-2,-6.92168E-2,9.6020095E-2,-1.6674552E-2,-1.9251633E-1,1.4822603E-2,3.438858E-2,5.374947E-2,2.2938424E-1,-2.572848E-1,7.191944E-2,-2.7704647E-1,-2.534364E-2,2.719391E-1,-4.335349E-2,-2.3172922E-2,1.0398822E-2,2.6696778E-3,-1.392109E-1,-2.2976303E-2,-1.23735815E-1,-2.8191902E-2,1.0380969E-1,3.896141E-2,-1.1532129E-1,-1.2502773E-2,4.0661626E-2,1.21124275E-1,-3.8294222E-2,3.6468508E-3,-2.0396577E-2],"categories":[],"categories_nodes":[],"categories_segments":[],"categories_sizes":[],"default_left":[0,0,0,1,0,0,0,0,0,0,0,0,0,0,0,0,0,1,0,0,0,0,0,0,0,0,0,0,0,0,0,0,0,0,0,0,0,0,0,0,0,0,0,0,0,0,0],"id":23,"left_children":[1,3,5,7,9,-1,-1,11,13,15,17,19,21,23,25,-1,-1,27,29,31,33,-1,-1,-1,-1,35,37,39,41,43,45,-1,-1,-1,-1,-1,-1,-1,-1,-1,-1,-1,-1,-1,-1,-1,-1],"loss_changes":[2.6027277E-1,1.7631815E-1,5.9378147E-3,3.2196712E-1,2.5861812E-1,0E0,0E0,2.1671782E-1,1.9659601E0,3.5418868E-3,2.2761427E-1,1.9106066E-1,1.1139065E-2,6.785345E-2,4.87577E-1,0E0,0E0,3.1211364E-1,2.814926E-1,1.7680518E-1,3.8694727E-1,0E0,0E0,0E0,0E0,1.3664162E-1,8.5103613E-1,3.1203797E-1,8.447592E-2,3.148817E-1,1.0398881E-2,0E0,0E0,0E0,0E0,0E0,0E0,0E0,0E0,0E0,0E0,0E0,0E0,0E0,0E0,0E0,0E0],"parents":[2147483647,0,0,1,1,2,2,3,3,4,4,7,7,8,8,9,9,10,10,11,11,12,12,13,13,14,14,17,17,18,18,19,19,20,20,25,25,26,26,27,27,28,28,29,29,30,30],"right_children":[2,4,6,8,10,-1,-1,12,14,16,18,20,22,24,26,-1,-1,28,30,32,34,-1,-1,-1,-1,36,38,40,42,44,46,-1,-1,-1,-1,-1,-1,-1,-1,-1,-1,-1,-1,-1,-1,-1,-1],"split_conditions":[4.9E0,1.2E0,1.1E1,2.59E0,1.25E0,2.663727E-2,1.07406236E-1,5.9E1,3.77E0,3.6E1,3.3E1,4E1,7.5E1,2.6E0,1.8E1,-1.1981993E-1,-3.0956842E-2,3.34E0,4.4E1,8.4E-1,2.53E0,1.4822603E-2,3.438858E-2,5.374947E-2,2.2938424E-1,1E1,9.6E-1,1.55E0,1.1205E2,3.74E0,1.55E0,-2.3172922E-2,1.0398822E-2,2.6696778E-3,-1.392109E-1,-2.2976303E-2,-1.23735815E-1,-2.8191902E-2,1.0380969E-1,3.896141E-2,-1.1532129E-1,-1.2502773E-2,4.0661626E-2,1.21124275E-1,-3.8294222E-2,3.6468508E-3,-2.0396577E-2],"split_indices":[2,2,0,1,2,0,0,0,1,0,0,0,0,1,0,0,0,1,0,1,1,0,0,0,0,0,2,2,1,2,2,0,0,0,0,0,0,0,0,0,0,0,0,0,0,0,0],"split_type":[0,0,0,0,0,0,0,0,0,0,0,0,0,0,0,0,0,0,0,0,0,0,0,0,0,0,0,0,0,0,0,0,0,0,0,0,0,0,0,0,0,0,0,0,0,0,0],"sum_hessian":[1.51E2,1.49E2,2E0,1.03E2,4.6E1,1E0,1E0,7.7E1,2.6E1,2E0,4.4E1,6.1E1,1.6E1,4E0,2.2E1,1E0,1E0,3.4E1,1E1,5.5E1,6E0,7E0,9E0,1E0,3E0,5E0,1.7E1,5E0,2.9E1,4E0,6E0,2.5E1,3E1,4E0,2E0,3E0,2E0,1.1E1,6E0,1E0,4E0,2.7E1,2E0,3E0,1E0,2E0,4E0],"tree_param":{"num_deleted":"0","num_feature":"3","num_nodes":"47","size_leaf_vector":"1"}},{"base_weights":[5.1183864E-3,1.2274821E-4,2.5319418E-1,2.7588643E-2,-2.4254767E-2,2.2642136E-2,9.129524E-2,-4.1533513E-3,4.4741362E-1,1.7376803E-2,-7.0725895E-2,-5.713752E-2,4.0351044E-2,5.2887727E-2,1.708191E-1,-1.025639E-2,1.7669564E-1,-3.735547E-1,-3.4096144E-2,7.27856E-2,-1.4302504E-1,6.7065515E-2,-3.8484573E-2,-6.1480872E-2,1.22928225E-1,-4.1860964E-2,-1.6134138E-1,-1.0104661E-1,8.6977445E-2,-2.4548532E-3,1.5666103E-1,-3.401474E-2,-6.775174E-2,1.0258641E-2,2.502807E-2,-6.1031725E-2,8.4551815E-3,9.931641E-2,-2.5680166E-2,7.984047E-2,-5.2144597E-3,-1.2494961E-2,-9.196346E-2,5.8281492E-2,-9.8226275E-3],"categories":[],"categories_nodes":[],"categories_segments":[],"categories_sizes":[],"default_left":[0,0,0,1,0,0,0,0,0,0,0,0,0,0,0,0,0,0,0,0,0,0,0,0,0,0,0,0,0,0,0,0,0,0,0,0,0,0,0,0,0,0,0,0,0],"id":24,"left_children":[1,3,5,7,9,-1,-1,11,13,15,17,19,21,-1,-1,23,-1,25,27,29,31,33,35,37,39,-1,-1,41,43,-1,-1,-1,-1,-1,-1,-1,-1,-1,-1,-1,-1,-1,-1,-1,-1],"loss_changes":[1.8834206E-1,1.01101704E-1,4.2889416E-3,9.480101E-1,1.5600227E-1,0E0,0E0,1.6029344E-1,6.49811E-2,6.852419E-1,4.0877986E-1,3.5633218E-1,8.05049E-2,0E0,0E0,2.9409486E-1,0E0,7.87065E-2,2.924964E-1,4.7732574E-1,2.1035463E-2,1.2205556E-2,1.1570643E-1,3.2184118E-1,2.4574536E-1,0E0,0E0,2.6796877E-1,1.7334858E-1,0E0,0E0,0E0,0E0,0E0,0E0,0E0,0E0,0E0,0E0,0E0,0E0,0E0,0E0,0E0,0E0],"parents":[2147483647,0,0,1,1,2,2,3,3,4,4,7,7,8,8,9,9,10,10,11,11,12,12,15,15,17,17,18,18,19,19,20,20,21,21,22,22,23,23,24,24,27,27,28,28],"right_children":[2,4,6,8,10,-1,-1,12,14,16,18,20,22,-1,-1,24,-1,26,28,30,32,34,36,38,40,-1,-1,42,44,-1,-1,-1,-1,-1,-1,-1,-1,-1,-1,-1,-1,-1,-1,-1,-1],"split_conditions":[4.9E0,9E-1,1.1E1,2.59E0,1.9E1,2.2642136E-2,9.129524E-2,1.9E1,2.1E1,1.8E1,2.6E1,1.1E1,7.5E-1,5.2887727E-2,1.708191E-1,5.82E0,1.7669564E-1,2.3E1,1.5E0,9E0,1.7E1,3.7E-1,7.8E-1,9.1E-1,1.55E0,-4.1860964E-2,-1.6134138E-1,1.1E0,4.4E1,-2.4548532E-3,1.5666103E-1,-3.401474E-2,-6.775174E-2,1.0258641E-2,2.502807E-2,-6.1031725E-2,8.4551815E-3,9.931641E-2,-2.5680166E-2,7.984047E-2,-5.2144597E-3,-1.2494961E-2,-9.196346E-2,5.8281492E-2,-9.8226275E-3],"split_indices":[2,2,0,1,0,0,0,0,0,0,0,0,2,0,0,1,0,0,2,0,0,2,2,2,2,0,0,2,0,0,0,0,0,0,0,0,0,0,0,0,0,0,0,0,0],"split_type":[0,0,0,0,0,0,0,0,0,0,0,0,0,0,0,0,0,0,0,0,0,0,0,0,0,0,0,0,0,0,0,0,0,0,0,0,0,0,0,0,0,0,0,0,0],"sum_hessian":[1.51E2,1.49E2,2E0,7E1,7.9E1,1E0,1E0,6.6E1,4E0,4.2E1,3.7E1,3E1,3.6E1,2E0,2E0,4.1E1,1E0,3E0,3.4E1,1.2E1,1.8E1,2.7E1,9E0,3E1,1.1E1,2E0,1E0,2.2E1,1.2E1,1.1E1,1E0,1.5E1,3E0,1E1,1.7E1,2E0,7E0,1E0,2.9E1,5E0,6E0,1.8E1,4E0,6E0,6E0],"tree_param":{"num_deleted":"0","num_feature":"3","num_nodes":"45","size_leaf_vector":"1"}},{"base_weights":[6.468184E-3,2.2501254E-3,2.1521504E-1,-1.6442258E-2,3.3036683E-2,1.924553E-2,7.760125E-2,1.8196583E-2,-5.794871E-2,1.2136803E-1,4.904641E-3,-2.991295E-3,3.6526236E-1,-1.0427877E-1,1.904308E-2,3.1247457E-2,-3.4832522E-2,-5.4131873E-2,5.031456E-2,1.3316174E-1,3.1206323E-2,-3.757455E-2,-2.1391849E-1,7.4271016E-2,-1.0712981E-2,9.7401935E-4,2.5048637E-1,-2.9557515E-2,1.6841155E-2,5.529658E-3,-2.6221976E-2,1.7500438E-2,1.1527194E-2,-3.187151E-2,3.5237838E-2,-1.0480867E-1,2.2976303E-2,-7.4371725E-2,6.4880755E-3,7.7202437E-3,-1.0756045E-1,1.5019113E-1,6.713867E-5,3.22376E-2,-2.285467E-2],"categories":[],"categories_nodes":[],"categories_segments":[],"categories_sizes":[],"default_left":[0,1,0,0,0,0,0,1,0,0,0,0,0,0,0,0,0,0,0,0,0,0,0,0,0,0,0,0,0,0,0,0,0,0,0,0,0,0,0,0,0,0,0,0,0],"id":25,"left_children":[1,3,5,7,9,-1,-1,11,13,-1,15,17,19,21,23,25,27,29,31,-1,-1,33,35,-1,37,39,41,-1,43,-1,-1,-1,-1,-1,-1,-1,-1,-1,-1,-1,-1,-1,-1,-1,-1],"loss_changes":[1.3335273E-1,8.6864315E-2,3.099516E-3,1.3620159E-1,5.937634E-1,0E0,0E0,3.8347912E-1,1.5536824E-1,0E0,5.761502E-2,1.3902825E-1,1.543653E-2,1.8942481E-1,1.1825327E-1,2.1878085E-1,7.406627E-2,6.438935E-2,1.4267117E-4,0E0,0E0,2.0409274E-1,4.202293E-1,0E0,1.2809406E-1,2.762711E-1,2.5030142E-1,0E0,1.17770545E-1,0E0,0E0,0E0,0E0,0E0,0E0,0E0,0E0,0E0,0E0,0E0,0E0,0E0,0E0,0E0,0E0],"parents":[2147483647,0,0,1,1,2,2,3,3,4,4,7,7,8,8,10,10,11,11,12,12,13,13,14,14,15,15,16,16,17,17,18,18,21,21,22,22,24,24,25,25,26,26,28,28],"right_children":[2,4,6,8,10,-1,-1,12,14,-1,16,18,20,22,24,26,28,30,32,-1,-1,34,36,-1,38,40,42,-1,44,-1,-1,-1,-1,-1,-1,-1,-1,-1,-1,-1,-1,-1,-1,-1,-1],"split_conditions":[4.9E0,2.59E0,1.1E1,7.5E-1,3.34E0,1.924553E-2,7.760125E-2,2.14E0,4.2E1,1.2136803E-1,2.1E1,2.7E1,1.1E1,1.5E1,4.4E1,1.8E1,9.1E-1,6E-1,4E1,1.3316174E-1,3.1206323E-2,2.59E0,1.93E0,7.4271016E-2,4.8E1,1.7E1,1.9E1,-2.9557515E-2,1.1E0,5.529658E-3,-2.6221976E-2,1.7500438E-2,1.1527194E-2,-3.187151E-2,3.5237838E-2,-1.0480867E-1,2.2976303E-2,-7.4371725E-2,6.4880755E-3,7.7202437E-3,-1.0756045E-1,1.5019113E-1,6.713867E-5,3.22376E-2,-2.285467E-2],"split_indices":[2,1,0,2,1,0,0,1,0,0,0,0,0,0,0,0,2,1,0,0,0,1,2,0,0,0,0,0,2,0,0,0,0,0,0,0,0,0,0,0,0,0,0,0,0],"split_type":[0,0,0,0,0,0,0,0,0,0,0,0,0,0,0,0,0,0,0,0,0,0,0,0,0,0,0,0,0,0,0,0,0,0,0,0,0,0,0,0,0,0,0,0,0],"sum_hessian":[1.51E2,1.49E2,2E0,9.3E1,5.6E1,1E0,1E0,5.1E1,4.2E1,3E0,5.3E1,4.9E1,2E0,2.6E1,1.6E1,3.2E1,2.1E1,2.5E1,2.4E1,1E0,1E0,1.7E1,9E0,1E0,1.5E1,2.9E1,3E0,9E0,1.2E1,8E0,1.7E1,1.2E1,1.2E1,1.2E1,5E0,6E0,3E0,1E0,1.4E1,2.8E1,1E0,1E0,2E0,6E0,6E0],"tree_param":{"num_deleted":"0","num_feature":"3","num_nodes":"45","size_leaf_vector":"1"}},{"base_weights":[6.824358E-3,3.2566984E-3,1.8293254E-1,-2.0204484E-2,2.349159E-2,1.6358186E-2,6.596146E-2,-4.5378868E-2,2.4143659E-2,1.9523716E-1,9.623628E-3,-2.0899508E-2,-2.3703384E-1,6.313019E-2,8.274688E-3,1.1318722E-1,8.33683E-2,-1.5996622E-2,4.174266E-2,-5.248057E-2,9.721989E-2,5.2262307E-3,-9.150081E-2,-6.321602E-2,2.6179472E-2,3.4817506E-2,6.866646E-3,-5.0895503E-3,-1.5972774E-1,2.7713266E-1,-8.398122E-3,-2.2837494E-3,-6.541378E-2,1.4421631E-2,7.3560335E-2,1.3100109E-2,-1.4701996E-2,-3.83503E-3,4.539986E-2,1.9548798E-2,-9.142628E-2,1.4811689E-1,-3.1209566E-2,-5.533176E-3,2.5444033E-2],"categories":[],"categories_nodes":[],"categories_segments":[],"categories_sizes":[],"default_left":[0,1,0,0,0,0,0,0,0,0,0,0,0,0,0,0,0,0,0,0,0,0,0,0,0,0,0,0,0,0,0,0,0,0,0,0,0,0,0,0,0,0,0,0,0],"id":26,"left_children":[1,3,5,7,9,-1,-1,11,13,15,17,19,21,-1,23,-1,25,27,29,31,33,-1,-1,-1,35,-1,-1,37,39,41,43,-1,-1,-1,-1,-1,-1,-1,-1,-1,-1,-1,-1,-1,-1],"loss_changes":[9.490493E-2,7.168481E-2,2.2404864E-3,7.924621E-2,1.9104373E-1,0E0,0E0,2.061677E-1,7.5120844E-2,9.074265E-2,6.320796E-2,1.5804595E-1,9.178829E-2,0E0,1.0354289E-1,0E0,7.228948E-3,6.6597536E-2,4.0361714E-1,2.4348387E-1,5.3669214E-2,0E0,0E0,0E0,3.3695698E-2,0E0,0E0,5.127787E-2,1.17703825E-1,5.46702E-1,2.8719444E-2,0E0,0E0,0E0,0E0,0E0,0E0,0E0,0E0,0E0,0E0,0E0,0E0,0E0,0E0],"parents":[2147483647,0,0,1,1,2,2,3,3,4,4,7,7,8,8,9,9,10,10,11,11,12,12,14,14,16,16,17,17,18,18,19,19,20,20,24,24,27,27,28,28,29,29,30,30],"right_children":[2,4,6,8,10,-1,-1,12,14,16,18,20,22,-1,24,-1,26,28,30,32,34,-1,-1,-1,36,-1,-1,38,40,42,44,-1,-1,-1,-1,-1,-1,-1,-1,-1,-1,-1,-1,-1,-1],"split_conditions":[4.9E0,1.48E0,1.1E1,4.2E1,6.3E-1,1.6358186E-2,6.596146E-2,3.5E1,4.4E1,1.1E1,1.8E1,2.7E1,1.48E0,6.313019E-2,4.8E1,1.1318722E-1,2.1E1,1.7E1,2.5E1,1.7E1,3.4E1,5.2262307E-3,-9.150081E-2,-6.321602E-2,1.55E0,3.4817506E-2,6.866646E-3,1.6E1,2.6E0,4.07E0,3.364E1,-2.2837494E-3,-6.541378E-2,1.4421631E-2,7.3560335E-2,1.3100109E-2,-1.4701996E-2,-3.83503E-3,4.539986E-2,1.9548798E-2,-9.142628E-2,1.4811689E-1,-3.1209566E-2,-5.533176E-3,2.5444033E-2],"split_indices":[2,1,0,0,2,0,0,0,0,0,0,0,1,0,0,0,0,0,0,0,0,0,0,0,2,0,0,0,1,1,1,0,0,0,0,0,0,0,0,0,0,0,0,0,0],"split_type":[0,0,0,0,0,0,0,0,0,0,0,0,0,0,0,0,0,0,0,0,0,0,0,0,0,0,0,0,0,0,0,0,0,0,0,0,0,0,0,0,0,0,0,0,0],"sum_hessian":[1.51E2,1.49E2,2E0,6.9E1,8E1,1E0,1E0,4.4E1,2.5E1,5E0,7.5E1,4E1,4E0,1E0,2.4E1,1E0,4E0,4.2E1,3.3E1,3.2E1,8E0,1E0,3E0,1E0,2.3E1,2E0,2E0,4E1,2E0,5E0,2.8E1,2.6E1,6E0,7E0,1E0,1.9E1,4E0,3.9E1,1E0,1E0,1E0,3E0,2E0,2.6E1,2E0],"tree_param":{"num_deleted":"0","num_feature":"3","num_nodes":"45","size_leaf_vector":"1"}},{"base_weights":[6.5929866E-3,3.5710502E-3,1.5549214E-1,1.1803974E-2,-4.4866145E-2,1.3904572E-2,5.6066897E-2,2.9253758E-2,-9.394985E-3,-9.561482E-2,-1.5453517E-3,6.269705E-3,1.5405135E-1,6.0274377E-3,-1.2482262E-1,-1.21511266E-1,7.23987E-2,-1.2061838E-2,2.1399537E-1,4.1616168E-2,2.8065032E-1,-5.501747E-3,1.6845932E-2,-6.2124684E-2,-1.1357307E-2,-6.641842E-2,-7.5614385E-2,6.9096185E-2,2.2747386E-2,8.5138745E-4,-6.305809E-2,2.4240114E-2,8.275757E-2,-1.3997842E-2,3.584633E-2,9.500485E-2,2.0478059E-2,3.3156122E-3,-7.062627E-2,-8.260918E-3,9.6435554E-4,7.947922E-4,-2.6729966E-2,1.3709565E-2,-3.1014634E-2],"categories":[],"categories_nodes":[],"categories_segments":[],"categories_sizes":[],"default_left":[0,0,0,0,0,0,0,0,0,0,0,0,0,0,0,0,0,0,0,0,0,0,0,0,0,0,0,0,0,0,0,0,0,0,0,0,0,0,0,0,0,0,0,0,0],"id":27,"left_children":[1,3,5,7,9,-1,-1,11,13,-1,15,17,19,21,23,25,27,29,31,33,35,37,-1,-1,39,-1,41,-1,43,-1,-1,-1,-1,-1,-1,-1,-1,-1,-1,-1,-1,-1,-1,-1,-1],"loss_changes":[6.783923E-2,6.0346562E-2,1.6184375E-3,4.799416E-2,2.6050216E-1,0E0,0E0,2.0268731E-1,1.0578261E-1,0E0,1.8621258E-1,2.3486502E-1,1.4489639E-1,3.093807E-2,6.298342E-2,1.9934095E-2,9.66942E-2,1.6886757E-1,1.8909857E-2,5.369439E-2,1.6647905E-2,1.700673E-1,0E0,0E0,1.0315515E-3,0E0,7.6240227E-3,0E0,3.6567412E-2,0E0,0E0,0E0,0E0,0E0,0E0,0E0,0E0,0E0,0E0,0E0,0E0,0E0,0E0,0E0,0E0],"parents":[2147483647,0,0,1,1,2,2,3,3,4,4,7,7,8,8,10,10,11,11,12,12,13,13,14,14,15,15,16,16,17,17,18,18,19,19,20,20,21,21,24,24,26,26,28,28],"right_children":[2,4,6,8,10,-1,-1,12,14,-1,16,18,20,22,24,26,28,30,32,34,36,38,-1,-1,40,-1,42,-1,44,-1,-1,-1,-1,-1,-1,-1,-1,-1,-1,-1,-1,-1,-1,-1,-1],"split_conditions":[4.9E0,1.55E0,1.1E1,2.6E1,2E0,1.3904572E-2,5.6066897E-2,4.05E0,1.1E0,-9.561482E-2,6.863E1,1.9E1,1.5E1,7.5E1,3.6E1,1.36E0,2.5E0,3.77E0,2.24E0,5.82E0,1.9E1,5.84E0,1.6845932E-2,-6.2124684E-2,3.7E1,-6.641842E-2,2E0,6.9096185E-2,4.75E0,8.5138745E-4,-6.305809E-2,2.4240114E-2,8.275757E-2,-1.3997842E-2,3.584633E-2,9.500485E-2,2.0478059E-2,3.3156122E-3,-7.062627E-2,-8.260918E-3,9.6435554E-4,7.947922E-4,-2.6729966E-2,1.3709565E-2,-3.1014634E-2],"split_indices":[2,2,0,0,2,0,0,1,2,0,1,0,0,0,0,1,2,1,1,1,0,1,0,0,0,0,0,0,2,0,0,0,0,0,0,0,0,0,0,0,0,0,0,0,0],"split_type":[0,0,0,0,0,0,0,0,0,0,0,0,0,0,0,0,0,0,0,0,0,0,0,0,0,0,0,0,0,0,0,0,0,0,0,0,0,0,0,0,0,0,0,0,0],"sum_hessian":[1.51E2,1.49E2,2E0,1.28E2,2.1E1,1E0,1E0,7E1,5.8E1,2E0,1.9E1,6E1,1E1,5.2E1,6E0,7E0,1.2E1,5.6E1,4E0,6E0,4E0,4.3E1,9E0,3E0,3E0,1E0,6E0,2E0,1E1,5.3E1,3E0,2E0,2E0,3E0,3E0,3E0,1E0,4.1E1,2E0,1E0,2E0,1E0,5E0,9E0,1E0],"tree_param":{"num_deleted":"0","num_feature":"3","num_nodes":"45","size_leaf_vector":"1"}},{"base_weights":[4.589607E-3,2.007471E-3,1.3216655E-1,-1.6343337E-2,1.784141E-2,1.1818314E-2,4.7656633E-2,-4.6506813E-3,-5.252334E-2,1.5377839E-1,6.874787E-3,-1.1456615E-2,5.340958E-2,-1.4480618E-1,1.0976954E-2,9.608174E-2,5.6425095E-2,2.5182534E-2,-1.3103176E-2,-2.8996468E-2,2.4259567E-2,-2.0427284E-1,7.7209476E-4,-5.6455657E-2,4.9711753E-2,2.3382187E-2,4.830361E-3,1.15191145E-2,8.370838E-2,-2.0977879E-2,7.658754E-3,-4.225277E-3,-5.650082E-2,8.917491E-4,1.2297592E-2,-4.435158E-3,-9.770127E-2,3.6909174E-2,-1.4463959E-2,-5.4882797E-3,2.4037125E-2,-1.2543256E-2,1.5995942E-2],"categories":[],"categories_nodes":[],"categories_segments":[],"categories_sizes":[],"default_left":[0,1,0,0,0,0,0,0,0,0,0,0,0,0,0,0,0,0,0,0,0,0,0,0,0,0,0,0,0,0,0,0,0,0,0,0,0,0,0,0,0,0,0],"id":28,"left_children":[1,3,5,7,9,-1,-1,11,13,15,17,19,-1,21,23,-1,25,27,29,31,33,35,-1,-1,37,-1,-1,39,-1,-1,41,-1,-1,-1,-1,-1,-1,-1,-1,-1,-1,-1,-1],"loss_changes":[4.9806677E-2,4.387642E-2,1.169946E-3,2.936855E-2,1.1969515E-1,0E0,0E0,6.917924E-2,1.0120931E-1,7.918106E-2,2.8127082E-2,3.390564E-2,0E0,6.1875045E-2,9.421473E-2,0E0,3.0830111E-3,1.355217E-1,4.418656E-2,8.288723E-2,6.2894626E-3,1.10203266E-1,0E0,0E0,7.772913E-2,0E0,0E0,8.1233904E-2,0E0,0E0,6.547671E-2,0E0,0E0,0E0,0E0,0E0,0E0,0E0,0E0,0E0,0E0,0E0,0E0],"parents":[2147483647,0,0,1,1,2,2,3,3,4,4,7,7,8,8,9,9,10,10,11,11,13,13,14,14,16,16,17,17,18,18,19,19,20,20,21,21,24,24,27,27,30,30],"right_children":[2,4,6,8,10,-1,-1,12,14,16,18,20,-1,22,24,-1,26,28,30,32,34,36,-1,-1,38,-1,-1,40,-1,-1,42,-1,-1,-1,-1,-1,-1,-1,-1,-1,-1,-1,-1],"split_conditions":[4.9E0,1.48E0,1.1E1,1.2E0,6.3E-1,1.1818314E-2,4.7656633E-2,1.02E0,2E0,1.1E1,3.77E0,4.8E1,5.340958E-2,3.6E1,1.36E0,9.608174E-2,2.1E1,3.48E0,9.1E-1,4E1,7.5E1,1.2E1,7.7209476E-4,-5.6455657E-2,4.4E1,2.3382187E-2,4.830361E-3,1.6E1,8.370838E-2,-2.0977879E-2,1.8E1,-4.225277E-3,-5.650082E-2,8.917491E-4,1.2297592E-2,-4.435158E-3,-9.770127E-2,3.6909174E-2,-1.4463959E-2,-5.4882797E-3,2.4037125E-2,-1.2543256E-2,1.5995942E-2],"split_indices":[2,1,0,2,2,0,0,2,2,0,1,0,0,0,1,0,0,1,2,0,0,0,0,0,0,0,0,0,0,0,0,0,0,0,0,0,0,0,0,0,0,0,0],"split_type":[0,0,0,0,0,0,0,0,0,0,0,0,0,0,0,0,0,0,0,0,0,0,0,0,0,0,0,0,0,0,0,0,0,0,0,0,0,0,0,0,0,0,0],"sum_hessian":[1.51E2,1.49E2,2E0,6.9E1,8E1,1E0,1E0,5.3E1,1.6E1,5E0,7.5E1,5.2E1,1E0,6E0,1E1,1E0,4E0,3.9E1,3.6E1,3.5E1,1.7E1,4E0,2E0,1E0,9E0,2E0,2E0,3.8E1,1E0,9E0,2.7E1,3.3E1,2E0,8E0,9E0,2E0,2E0,5E0,4E0,2.7E1,1.1E1,1.3E1,1.4E1],"tree_param":{"num_deleted":"0","num_feature":"3","num_nodes":"43","size_leaf_vector":"1"}},{"base_weights":[4.1266987E-3,2.8578777E-2,-6.7541916E-3,-5.237142E-3,1.71939E-1,1.4350007E-3,-3.3344574E-2,-9.799095E-3,2.5217557E-2,1.01881035E-1,7.5520106E-2,-4.9221765E-2,1.8569792E-2,-6.821518E-2,1.7237576E-2,-1.4175724E-3,-4.7987316E-2,3.832245E-2,1.12342834E-1,-2.0651266E-2,-6.412831E-2,7.5318613E-3,1.7673683E-1,6.649017E-2,-1.07432365E-1,8.629608E-2,-3.4552436E-2,5.6788702E-3,-4.797058E-2,2.537613E-2,-2.0716349E-2,1.0045624E-2,4.0508654E-2,-3.861247E-2,4.539757E-2,-3.1130362E-2,1.5347345E-2,8.879471E-2,3.8327534E-2,3.988495E-2,-1.993332E-2,-1.8738206E-1,-2.3556573E-2,-2.9651644E-3,1.1281204E-1,-4.8675537E-3,-3.1899262E-2,-1.4270783E-3,5.119264E-3,2.5568963E-3,-1.9267417E-2,7.4855806E-3,-1.6807938E-2,-4.983289E-3,-2.7748263E-2,5.3128626E-2,8.5511117E-4,1.389885E-2,3.3485414E-3,-2.2820283E-2,-6.720672E-2,4.6624377E-2,-2.378626E-2,1.4413453E-2,4.6067048E-2,-3.4217837E-3,3.7593843E-4],"categories":[],"categories_nodes":[],"categories_segments":[],"categories_sizes":[],"default_left":[0,0,0,0,0,0,0,0,0,0,0,1,1,0,0,0,0,0,0,0,0,0,0,0,0,0,0,0,0,0,0,0,0,0,0,0,0,0,0,0,0,0,0,0,0,0,0,0,0,0,0,0,0,0,0,0,0,0,0,0,0,0,0,0,0,0,0],"id":29,"left_children":[1,3,5,7,9,11,13,15,-1,-1,17,19,21,23,25,27,-1,29,31,33,-1,35,37,39,41,43,45,47,49,-1,51,-1,-1,53,-1,-1,55,-1,57,-1,-1,59,61,-1,63,65,-1,-1,-1,-1,-1,-1,-1,-1,-1,-1,-1,-1,-1,-1,-1,-1,-1,-1,-1,-1,-1],"loss_changes":[4.06342E-2,2.2874975E-1,2.3129748E-2,1.6710838E-2,1.198473E-1,7.208947E-2,4.527162E-2,4.759844E-2,0E0,0E0,5.282782E-3,9.430591E-2,1.06910735E-1,8.638467E-2,4.2323694E-2,1.2495766E-2,0E0,1.5409382E-2,8.4538385E-4,6.453224E-2,0E0,5.2914374E-2,5.467449E-2,4.4172913E-2,7.605605E-2,1.386654E-2,1.439757E-2,4.0020733E-3,5.138658E-3,0E0,6.2356247E-3,0E0,0E0,1.980221E-2,0E0,0E0,1.12691455E-1,0E0,1.3501663E-4,0E0,0E0,7.430747E-3,8.214208E-2,0E0,3.1780899E-3,2.5440956E-4,0E0,0E0,0E0,0E0,0E0,0E0,0E0,0E0,0E0,0E0,0E0,0E0,0E0,0E0,0E0,0E0,0E0,0E0,0E0,0E0,0E0],"parents":[2147483647,0,0,1,1,2,2,3,3,4,4,5,5,6,6,7,7,10,10,11,11,12,12,13,13,14,14,15,15,17,17,18,18,19,19,21,21,22,22,23,23,24,24,25,25,26,26,27,27,28,28,30,30,33,33,36,36,38,38,41,41,42,42,44,44,45,45],"right_children":[2,4,6,8,10,12,14,16,-1,-1,18,20,22,24,26,28,-1,30,32,34,-1,36,38,40,42,44,46,48,50,-1,52,-1,-1,54,-1,-1,56,-1,58,-1,-1,60,62,-1,64,66,-1,-1,-1,-1,-1,-1,-1,-1,-1,-1,-1,-1,-1,-1,-1,-1,-1,-1,-1,-1,-1],"split_conditions":[1.2E1,9E0,1.2E0,5.82E0,3.77E0,1.8E1,3.09E0,2.13E0,2.5217557E-2,1.01881035E-1,4.25E0,3.77E0,4.05E0,1.7E1,3.75E0,3.48E0,-4.7987316E-2,1.1E1,1.1E1,1.02E0,-6.412831E-2,1.9E1,1.9E1,8.13E0,3.3E1,3.54E0,4.75E0,2.53E0,2E0,2.537613E-2,1.1205E2,1.0045624E-2,4.0508654E-2,7.5E-1,4.539757E-2,-3.1130362E-2,2.5E1,8.879471E-2,2.1E1,3.988495E-2,-1.993332E-2,2.3E1,3.5E1,-2.9651644E-3,2.8E1,1.3E1,-3.1899262E-2,-1.4270783E-3,5.119264E-3,2.5568963E-3,-1.9267417E-2,7.4855806E-3,-1.6807938E-2,-4.983289E-3,-2.7748263E-2,5.3128626E-2,8.5511117E-4,1.389885E-2,3.3485414E-3,-2.2820283E-2,-6.720672E-2,4.6624377E-2,-2.378626E-2,1.4413453E-2,4.6067048E-2,-3.4217837E-3,3.7593843E-4],"split_indices":[0,0,2,1,1,0,2,2,0,0,2,1,1,0,2,1,0,0,0,2,0,0,0,1,0,2,2,1,0,0,1,0,0,2,0,0,0,0,0,0,0,0,0,0,0,0,0,0,0,0,0,0,0,0,0,0,0,0,0,0,0,0,0,0,0,0,0],"split_type":[0,0,0,0,0,0,0,0,0,0,0,0,0,0,0,0,0,0,0,0,0,0,0,0,0,0,0,0,0,0,0,0,0,0,0,0,0,0,0,0,0,0,0,0,0,0,0,0,0,0,0,0,0,0,0,0,0,0,0,0,0,0,0,0,0,0,0],"sum_hessian":[1.51E2,4.6E1,1.05E2,3.8E1,8E0,8.1E1,2.4E1,3.7E1,1E0,2E0,6E0,2E1,6.1E1,1.4E1,1E1,3.6E1,1E0,4E0,2E0,1.8E1,2E0,5.8E1,3E0,3E0,1.1E1,4E0,6E0,3.2E1,4E0,2E0,2E0,1E0,1E0,1.7E1,1E0,3E0,5.5E1,1E0,2E0,2E0,1E0,5E0,6E0,1E0,3E0,5E0,1E0,1.7E1,1.5E1,1E0,3E0,1E0,1E0,1.3E1,4E0,3E0,5.2E1,1E0,1E0,2E0,3E0,1E0,5E0,2E0,1E0,2E0,3E0],"tree_param":{"num_deleted":"0","num_feature":"3","num_nodes":"67","size_leaf_vector":"1"}},{"base_weights":[4.1091545E-3,2.2541531E-3,9.54895E-2,7.98014E-3,-3.1423412E-2,8.538437E-3,3.443184E-2,1.8673258E-2,-1.2395307E-2,-7.252808E-2,-9.894978E-3,-4.188091E-3,4.5745313E-2,-3.577034E-2,1.6022364E-2,-7.25414E-2,2.6609762E-2,1.0287444E-2,-4.726569E-2,1.4174843E-1,2.3994792E-2,-1.0611361E-2,-4.9560644E-2,2.396657E-3,1.0177104E-2,-9.215949E-2,-2.737427E-3,4.256153E-2,-2.7114488E-2,-6.1914173E-4,6.638718E-2,-8.05041E-3,-2.4425698E-2,5.8263246E-2,2.1184923E-3,-1.0299683E-3,1.9936753E-2,-1.1130429E-2,5.775469E-3,1.319027E-3,-3.2406808E-3,2.173233E-3,-3.404671E-2,2.3794588E-2,-9.632263E-3],"categories":[],"categories_nodes":[],"categories_segments":[],"categories_sizes":[],"default_left":[0,0,0,0,0,0,0,0,0,0,0,0,0,0,0,0,0,0,0,0,0,0,0,1,0,0,0,0,0,0,0,0,0,0,0,0,0,0,0,0,0,0,0,0,0],"id":30,"left_children":[1,3,5,7,9,-1,-1,11,13,-1,15,17,19,21,23,25,27,29,31,33,35,37,-1,39,-1,41,-1,43,-1,-1,-1,-1,-1,-1,-1,-1,-1,-1,-1,-1,-1,-1,-1,-1,-1],"loss_changes":[2.5550373E-2,2.9176356E-2,6.109644E-4,2.8337602E-2,9.722868E-2,0E0,0E0,5.2798398E-2,3.0465003E-2,0E0,4.9955025E-2,2.9794095E-2,7.803537E-2,7.965628E-2,5.0409767E-3,9.111974E-3,2.9973855E-2,9.4278194E-2,6.1885715E-3,4.8090488E-2,3.8660698E-2,1.811782E-2,0E0,3.9068412E-4,0E0,1.3543531E-2,0E0,3.8223423E-2,0E0,0E0,0E0,0E0,0E0,0E0,0E0,0E0,0E0,0E0,0E0,0E0,0E0,0E0,0E0,0E0,0E0],"parents":[2147483647,0,0,1,1,2,2,3,3,4,4,7,7,8,8,10,10,11,11,12,12,13,13,14,14,15,15,16,16,17,17,18,18,19,19,20,20,21,21,23,23,25,25,27,27],"right_children":[2,4,6,8,10,-1,-1,12,14,-1,16,18,20,22,24,26,28,30,32,34,36,38,-1,40,-1,42,-1,44,-1,-1,-1,-1,-1,-1,-1,-1,-1,-1,-1,-1,-1,-1,-1,-1,-1],"split_conditions":[4.9E0,1.55E0,1.1E1,3.5E1,1.93E0,8.538437E-3,3.443184E-2,2.59E0,5.2E1,-7.252808E-2,6.863E1,2.32E0,9.1E-1,5.82E0,7.6E-1,3.09E0,4.75E0,2.24E0,7E0,3.77E0,4.05E0,3.7E1,-4.9560644E-2,2.41E0,1.0177104E-2,2.13E0,-2.737427E-3,4.4E1,-2.7114488E-2,-6.1914173E-4,6.638718E-2,-8.05041E-3,-2.4425698E-2,5.8263246E-2,2.1184923E-3,-1.0299683E-3,1.9936753E-2,-1.1130429E-2,5.775469E-3,1.319027E-3,-3.2406808E-3,2.173233E-3,-3.404671E-2,2.3794588E-2,-9.632263E-3],"split_indices":[2,2,0,0,2,0,0,1,0,0,1,1,2,1,2,2,2,1,0,1,1,0,0,1,0,2,0,0,0,0,0,0,0,0,0,0,0,0,0,0,0,0,0,0,0],"split_type":[0,0,0,0,0,0,0,0,0,0,0,0,0,0,0,0,0,0,0,0,0,0,0,0,0,0,0,0,0,0,0,0,0,0,0,0,0,0,0,0,0,0,0,0,0],"sum_hessian":[1.51E2,1.49E2,2E0,1.28E2,2.1E1,1E0,1E0,8.4E1,4.4E1,1E0,2E1,4.6E1,3.8E1,2.4E1,2E1,7E0,1.3E1,3.5E1,1.1E1,6E0,3.2E1,2.1E1,3E0,1.2E1,8E0,5E0,2E0,1.2E1,1E0,3.4E1,1E0,8E0,3E0,4E0,2E0,2E1,1.2E1,1.1E1,1E1,1.1E1,1E0,1E0,4E0,8E0,4E0],"tree_param":{"num_deleted":"0","num_feature":"3","num_nodes":"45","size_leaf_vector":"1"}},{"base_weights":[2.803022E-3,1.2170641E-3,8.116659E-2,6.0973205E-3,-2.7454305E-2,7.2578434E-3,2.9267121E-2,1.4396129E-2,-9.713703E-3,-5.300312E-2,-3.6981762E-3,-2.222751E-3,3.405488E-2,-2.723549E-2,1.1608124E-2,-5.510412E-2,2.8220726E-2,9.028752E-3,-3.5792034E-2,1.0784912E-1,1.7369589E-2,-7.6709227E-3,-3.840952E-2,-1.6147613E-3,2.1659851E-2,-3.568223E-2,-2.899306E-2,3.5951473E-2,6.6861237E-4,-4.385049E-4,5.6429103E-2,-5.9034987E-3,-1.8929958E-2,4.0731814E-2,-8.953858E-3,1.0745579E-3,2.0420838E-2,-5.5016517E-3,9.680329E-3,7.387798E-5,-2.754593E-3,7.4630743E-3,2.7019503E-3,-7.18832E-4,-1.4502526E-2,-1.9538881E-2,6.758118E-3],"categories":[],"categories_nodes":[],"categories_segments":[],"categories_sizes":[],"default_left":[0,0,0,0,0,0,0,0,0,0,0,0,0,0,0,0,0,0,0,0,0,0,0,0,0,0,0,0,0,0,0,0,0,0,0,0,0,0,0,0,0,0,0,0,0,0,0],"id":31,"left_children":[1,3,5,7,9,-1,-1,11,13,-1,15,17,19,21,23,25,27,29,31,33,35,37,-1,39,41,-1,43,-1,45,-1,-1,-1,-1,-1,-1,-1,-1,-1,-1,-1,-1,-1,-1,-1,-1,-1,-1],"loss_changes":[1.8791977E-2,2.1155942E-2,4.4130534E-4,1.7066272E-2,7.733563E-2,0E0,0E0,2.7845738E-2,1.7127994E-2,0E0,3.4371506E-2,1.8075287E-2,4.614656E-2,4.831875E-2,2.826145E-3,9.886283E-3,3.2735202E-2,6.790108E-2,4.0386654E-3,3.096693E-2,2.2824377E-2,9.965129E-3,0E0,1.4308863E-4,2.644253E-4,0E0,3.486482E-3,0E0,1.7287891E-2,0E0,0E0,0E0,0E0,0E0,0E0,0E0,0E0,0E0,0E0,0E0,0E0,0E0,0E0,0E0,0E0,0E0,0E0],"parents":[2147483647,0,0,1,1,2,2,3,3,4,4,7,7,8,8,10,10,11,11,12,12,13,13,14,14,15,15,16,16,17,17,18,18,19,19,20,20,21,21,23,23,24,24,26,26,28,28],"right_children":[2,4,6,8,10,-1,-1,12,14,-1,16,18,20,22,24,26,28,30,32,34,36,38,-1,40,42,-1,44,-1,46,-1,-1,-1,-1,-1,-1,-1,-1,-1,-1,-1,-1,-1,-1,-1,-1,-1,-1],"split_conditions":[4.9E0,1.55E0,1.1E1,3.5E1,2E0,7.2578434E-3,2.9267121E-2,2.59E0,5.2E1,-5.300312E-2,6.863E1,2.32E0,9.1E-1,5.82E0,7.5E1,1.36E0,2.5E0,2.24E0,7E0,2.5E1,1.8E1,9.1E-1,-3.840952E-2,1.48E0,1.1E2,-3.568223E-2,1.3E1,3.5951473E-2,3.54E0,-4.385049E-4,5.6429103E-2,-5.9034987E-3,-1.8929958E-2,4.0731814E-2,-8.953858E-3,1.0745579E-3,2.0420838E-2,-5.5016517E-3,9.680329E-3,7.387798E-5,-2.754593E-3,7.4630743E-3,2.7019503E-3,-7.18832E-4,-1.4502526E-2,-1.9538881E-2,6.758118E-3],"split_indices":[2,2,0,0,2,0,0,1,0,0,1,1,2,1,0,1,2,1,0,0,0,2,0,1,0,0,0,0,2,0,0,0,0,0,0,0,0,0,0,0,0,0,0,0,0,0,0],"split_type":[0,0,0,0,0,0,0,0,0,0,0,0,0,0,0,0,0,0,0,0,0,0,0,0,0,0,0,0,0,0,0,0,0,0,0,0,0,0,0,0,0,0,0,0,0,0,0],"sum_hessian":[1.51E2,1.49E2,2E0,1.28E2,2.1E1,1E0,1E0,8.4E1,4.4E1,2E0,1.9E1,4.6E1,3.8E1,2.4E1,2E1,7E0,1.2E1,3.5E1,1.1E1,6E0,3.2E1,2.1E1,3E0,9E0,1.1E1,1E0,6E0,2E0,1E1,3.4E1,1E0,8E0,3E0,5E0,1E0,2.6E1,6E0,1.7E1,4E0,8E0,1E0,8E0,3E0,3E0,3E0,2E0,8E0],"tree_param":{"num_deleted":"0","num_feature":"3","num_nodes":"47","size_leaf_vector":"1"}},{"base_weights":[2.0507455E-3,1.7791243E-2,-4.9478784E-3,-1.8163064E-3,1.0078049E-1,-3.4673056E-3,-2.4061205E-2,3.8949456E-3,-4.1431807E-2,5.430279E-2,3.049787E-2,-2.3158588E-2,2.9757023E-3,7.7384603E-3,-3.968203E-2,1.9552233E-3,-1.651454E-2,-5.997658E-3,6.8992615E-2,-5.1527977E-2,6.1205182E-2,1.7830506E-2,-2.1079648E-2,5.6900596E-3,2.7375221E-3,-3.0329902E-2,1.2472988E-2,4.527283E-3,-1.8057505E-2,6.16951E-3,2.4877168E-2,-2.7582169E-2,-5.3408053E-2,3.8497355E-2,-2.1215439E-2,1.4621128E-3,1.1817033E-1,-7.8031965E-2,2.1225472E-3,-4.3293E-3,3.6671164E-3,1.7795564E-3,-9.905434E-3,-4.1374555E-3,-1.2928964E-2,-2.0462037E-3,-9.659958E-3,-2.388797E-2,2.8012625E-3,6.9422156E-2,1.82189E-2,-4.0261805E-2,-1.8754579E-3,-5.5890083E-3,9.28917E-3],"categories":[],"categories_nodes":[],"categories_segments":[],"categories_sizes":[],"default_left":[0,0,0,1,0,0,0,0,0,0,0,0,0,0,0,0,0,0,0,1,1,0,0,0,0,0,0,0,0,0,0,0,0,0,0,0,0,1,0,0,0,0,0,0,0,0,0,0,0,0,0,0,0,0,0],"id":32,"left_children":[1,3,5,7,9,11,-1,13,15,-1,17,19,21,23,25,-1,-1,27,29,31,33,35,37,-1,39,-1,-1,-1,41,-1,-1,43,-1,-1,45,47,49,51,53,-1,-1,-1,-1,-1,-1,-1,-1,-1,-1,-1,-1,-1,-1,-1,-1],"loss_changes":[1.6832625E-2,7.666218E-2,1.1532659E-2,8.985286E-3,4.522782E-2,1.3390377E-2,0E0,6.169184E-3,3.6233142E-3,0E0,8.843111E-3,6.538084E-2,2.896286E-2,1.801112E-3,1.9175528E-2,0E0,0E0,1.289806E-3,3.1864084E-4,5.5671982E-2,4.144658E-2,8.194731E-2,4.1129608E-2,0E0,4.0851366E-3,0E0,0E0,0E0,1.2725447E-3,0E0,0E0,3.2567913E-3,0E0,0E0,4.128475E-4,2.8842272E-2,3.147751E-2,3.5450783E-2,1.4343101E-2,0E0,0E0,0E0,0E0,0E0,0E0,0E0,0E0,0E0,0E0,0E0,0E0,0E0,0E0,0E0,0E0],"parents":[2147483647,0,0,1,1,2,2,3,3,4,4,5,5,7,7,8,8,10,10,11,11,12,12,13,13,14,14,17,17,18,18,19,19,20,20,21,21,22,22,24,24,28,28,31,31,34,34,35,35,36,36,37,37,38,38],"right_children":[2,4,6,8,10,12,-1,14,16,-1,18,20,22,24,26,-1,-1,28,30,32,34,36,38,-1,40,-1,-1,-1,42,-1,-1,44,-1,-1,46,48,50,52,54,-1,-1,-1,-1,-1,-1,-1,-1,-1,-1,-1,-1,-1,-1,-1,-1],"split_conditions":[1.2E1,9E0,4.75E0,3.77E0,5.42E0,1.8E1,-2.4061205E-2,1.55E0,2E0,5.430279E-2,4.25E0,1.19E0,4.54E0,1.49E0,1.36E0,1.9552233E-3,-1.651454E-2,1.1E1,1.1E1,3.77E0,4.053E1,9.1E-1,3.3E1,5.6900596E-3,2.53E0,-3.0329902E-2,1.2472988E-2,4.527283E-3,1.1205E2,6.16951E-3,2.4877168E-2,8.4E-1,-5.3408053E-2,3.8497355E-2,1.3E1,1.9E1,1.9E1,3.364E1,1.25E0,-4.3293E-3,3.6671164E-3,1.7795564E-3,-9.905434E-3,-4.1374555E-3,-1.2928964E-2,-2.0462037E-3,-9.659958E-3,-2.388797E-2,2.8012625E-3,6.9422156E-2,1.82189E-2,-4.0261805E-2,-1.8754579E-3,-5.5890083E-3,9.28917E-3],"split_indices":[0,0,2,1,1,0,0,2,0,0,2,2,1,1,1,0,0,0,0,1,1,2,0,0,1,0,0,0,1,0,0,1,0,0,0,0,0,1,2,0,0,0,0,0,0,0,0,0,0,0,0,0,0,0,0],"split_type":[0,0,0,0,0,0,0,0,0,0,0,0,0,0,0,0,0,0,0,0,0,0,0,0,0,0,0,0,0,0,0,0,0,0,0,0,0,0,0,0,0,0,0,0,0,0,0,0,0,0,0,0,0,0,0],"sum_hessian":[1.51E2,4.6E1,1.05E2,3.8E1,8E0,1.04E2,1E0,3.4E1,4E0,3E0,5E0,2.5E1,7.9E1,3.2E1,2E0,1E0,3E0,3E0,2E0,1.9E1,6E0,4.9E1,3E1,9E0,2.3E1,1E0,1E0,1E0,2E0,1E0,1E0,1.7E1,2E0,3E0,3E0,4.3E1,6E0,8E0,2.2E1,8E0,1.5E1,1E0,1E0,1E1,7E0,2E0,1E0,3E0,4E1,1E0,5E0,4E0,4E0,1.3E1,9E0],"tree_param":{"num_deleted":"0","num_feature":"3","num_nodes":"55","size_leaf_vector":"1"}},{"base_weights":[1.5323248E-3,3.7991445E-4,5.864207E-2,4.544012E-3,-1.8758161E-2,5.2436832E-3,2.1145249E-2,1.182298E-2,-9.442485E-3,-3.691957E-2,1.1014765E-2,5.427025E-3,4.8680466E-2,-1.8529499E-2,2.2397613E-2,-5.216515E-2,1.0102844E-2,3.3179857E-2,-1.0003662E-2,-6.1343396E-3,4.555261E-2,5.9009172E-2,1.7342828E-2,-8.060394E-3,-2.8509809E-2,7.6832366E-3,3.3525468E-3,-2.4765646E-2,-1.0762262E-1,2.9275132E-2,-3.616333E-2,4.0342542E-3,-2.0451738E-2,1.3147355E-3,-2.8351404E-2,2.5285264E-2,7.685519E-3,9.584827E-3,-1.9308472E-2,-7.4968818E-3,7.500458E-4,-2.5780411E-2,-2.5262355E-3,-4.7658924E-2,-1.1276436E-2,-1.0681152E-5,-2.1681977E-2,-1.5863419E-3,5.1026344E-3],"categories":[],"categories_nodes":[],"categories_segments":[],"categories_sizes":[],"default_left":[0,0,0,0,0,0,0,0,0,0,0,0,0,0,0,0,0,0,0,0,0,0,0,0,0,0,0,0,0,0,0,1,0,0,0,0,0,0,0,0,0,0,0,0,0,0,0,0,0],"id":33,"left_children":[1,3,5,7,9,-1,-1,11,13,15,17,19,21,23,25,27,29,-1,31,33,35,-1,37,39,-1,-1,-1,41,43,-1,45,47,-1,-1,-1,-1,-1,-1,-1,-1,-1,-1,-1,-1,-1,-1,-1,-1,-1],"loss_changes":[9.981428E-3,1.20391585E-2,2.3038406E-4,1.27357375E-2,1.5006058E-2,0E0,0E0,1.9066392E-2,1.2856268E-2,1.2714045E-2,2.4130663E-2,3.32168E-2,5.225067E-2,2.6465278E-2,7.439265E-5,1.708825E-2,2.3765994E-2,0E0,8.440712E-3,5.2459013E-2,1.0194119E-2,0E0,1.5183972E-2,5.604711E-3,0E0,0E0,0E0,9.27436E-3,8.383036E-3,0E0,5.2157044E-3,1.1784831E-3,0E0,0E0,0E0,0E0,0E0,0E0,0E0,0E0,0E0,0E0,0E0,0E0,0E0,0E0,0E0,0E0,0E0],"parents":[2147483647,0,0,1,1,2,2,3,3,4,4,7,7,8,8,9,9,10,10,11,11,12,12,13,13,14,14,15,15,16,16,18,18,19,19,20,20,22,22,23,23,27,27,28,28,30,30,31,31],"right_children":[2,4,6,8,10,-1,-1,12,14,16,18,20,22,24,26,28,30,-1,32,34,36,-1,38,40,-1,-1,-1,42,44,-1,46,48,-1,-1,-1,-1,-1,-1,-1,-1,-1,-1,-1,-1,-1,-1,-1,-1,-1],"split_conditions":[4.9E0,1.32E0,1.1E1,3.5E1,3.54E0,5.2436832E-3,2.1145249E-2,4.05E0,7.5E1,3.4E1,3.74E0,1.9E1,4.07E0,5.82E0,1.1E2,2.3E1,3.5E1,3.3179857E-2,4.75E0,1.7E1,2.6E1,5.9009172E-2,3E1,3.7E1,-2.8509809E-2,7.6832366E-3,3.3525468E-3,1.36E0,2.6E1,2.9275132E-2,1.55E0,6.863E1,-2.0451738E-2,1.3147355E-3,-2.8351404E-2,2.5285264E-2,7.685519E-3,9.584827E-3,-1.9308472E-2,-7.4968818E-3,7.500458E-4,-2.5780411E-2,-2.5262355E-3,-4.7658924E-2,-1.1276436E-2,-1.0681152E-5,-2.1681977E-2,-1.5863419E-3,5.1026344E-3],"split_indices":[2,2,0,0,2,0,0,1,0,0,2,0,1,1,0,0,0,0,2,0,0,0,0,0,0,0,0,1,0,0,2,1,0,0,0,0,0,0,0,0,0,0,0,0,0,0,0,0,0],"split_type":[0,0,0,0,0,0,0,0,0,0,0,0,0,0,0,0,0,0,0,0,0,0,0,0,0,0,0,0,0,0,0,0,0,0,0,0,0,0,0,0,0,0,0,0,0,0,0,0,0],"sum_hessian":[1.51E2,1.49E2,2E0,1.23E2,2.6E1,1E0,1E0,8.1E1,4.2E1,1.6E1,1E1,7E1,1.1E1,3.3E1,9E0,1.2E1,4E0,1E0,9E0,5.5E1,1.5E1,1E0,1E1,3E1,3E0,6E0,3E0,9E0,3E0,1E0,3E0,8E0,1E0,5E1,5E0,4E0,1.1E1,9E0,1E0,1.1E1,1.9E1,1E0,8E0,1E0,2E0,2E0,1E0,5E0,3E0],"tree_param":{"num_deleted":"0","num_feature":"3","num_nodes":"49","size_leaf_vector":"1"}},{"base_weights":[1.033401E-3,1.23708425E-2,-4.003327E-3,-2.476249E-3,7.53337E-2,-1.8092155E-2,5.68437E-4,2.0767518E-3,-3.3852004E-2,4.8199464E-2,2.800124E-2,-3.8702108E-2,4.3378014E-2,8.865849E-3,-2.518196E-2,1.865138E-2,-3.5250408E-3,2.0407678E-3,-1.3714886E-2,9.29451E-3,4.984538E-2,-2.0307966E-2,-4.084988E-2,2.7679253E-2,-1.6352654E-2,3.092879E-3,9.180069E-2,-7.002735E-2,4.352276E-3,3.5495998E-3,1.0980964E-2,-2.1913344E-2,1.9581867E-3,9.51004E-3,-1.6209284E-2,4.4574738E-3,1.7972946E-2,-3.0088583E-2,-6.4005173E-4,-1.3195039E-3,-7.832337E-3,-1.21343145E-2,6.147691E-3,5.015831E-2,3.2814026E-3,-3.213867E-2,-6.14357E-3,2.4884034E-2,-9.109497E-3,-2.0120793E-3,2.3379207E-3,7.4672705E-4,-8.040905E-3,-4.851151E-3,-1.2393475E-2,-1.8816949E-3,4.97303E-3,1.9217033E-2,1.3838548E-4,-3.672409E-3,-9.155274E-6,-1.3115388E-2,4.0978435E-3],"categories":[],"categories_nodes":[],"categories_segments":[],"categories_sizes":[],"default_left":[0,0,0,1,0,0,0,1,0,0,0,1,1,1,0,0,0,0,0,0,0,0,0,0,0,0,0,0,0,0,0,0,0,0,0,0,0,0,0,0,0,0,0,0,0,0,0,0,0,0,0,0,0,0,0,0,0,0,0,0,0,0,0],"id":34,"left_children":[1,3,5,7,9,11,13,15,17,-1,19,21,23,25,27,29,31,-1,-1,33,35,37,-1,-1,39,41,43,45,47,-1,-1,-1,49,-1,51,-1,-1,53,55,-1,-1,-1,57,-1,-1,-1,59,-1,61,-1,-1,-1,-1,-1,-1,-1,-1,-1,-1,-1,-1,-1,-1],"loss_changes":[8.7292725E-3,4.4122864E-2,6.8378295E-3,5.6416024E-3,3.1851593E-2,3.4618147E-2,1.7529853E-2,3.3154138E-3,2.7226736E-3,0E0,2.3971386E-3,3.3090122E-2,2.1948785E-2,2.9400453E-2,2.6794268E-2,6.686945E-4,1.0435189E-2,0E0,0E0,3.3709789E-3,1.6622292E-4,3.4433003E-3,0E0,0E0,3.5163236E-4,8.096151E-3,2.2557367E-2,1.8303346E-2,1.4509881E-2,0E0,0E0,0E0,1.366826E-3,0E0,6.609718E-4,0E0,0E0,1.2064027E-3,7.827624E-4,0E0,0E0,0E0,1.8410949E-2,0E0,0E0,0E0,1.4873095E-4,0E0,1.0053154E-2,0E0,0E0,0E0,0E0,0E0,0E0,0E0,0E0,0E0,0E0,0E0,0E0,0E0,0E0],"parents":[2147483647,0,0,1,1,2,2,3,3,4,4,5,5,6,6,7,7,8,8,10,10,11,11,12,12,13,13,14,14,15,15,16,16,19,19,20,20,21,21,24,24,25,25,26,26,27,27,28,28,32,32,34,34,37,37,38,38,42,42,46,46,48,48],"right_children":[2,4,6,8,10,12,14,16,18,-1,20,22,24,26,28,30,32,-1,-1,34,36,38,-1,-1,40,42,44,46,48,-1,-1,-1,50,-1,52,-1,-1,54,56,-1,-1,-1,58,-1,-1,-1,60,-1,62,-1,-1,-1,-1,-1,-1,-1,-1,-1,-1,-1,-1,-1,-1],"split_conditions":[1.2E1,9E0,1.8E1,3.77E0,3.77E0,1.19E0,1.1E0,1.19E0,2E0,4.8199464E-2,4.25E0,3.77E0,4.053E1,4.05E0,1.93E0,5.4E-1,2E0,2.0407678E-3,-1.3714886E-2,1.1E1,1.1E1,1.6E1,-4.084988E-2,2.7679253E-2,1.3E1,1.9E1,1.9E1,3.6E1,2.17E0,3.5495998E-3,1.0980964E-2,-2.1913344E-2,2.53E0,9.51004E-3,1.1205E2,4.4574738E-3,1.7972946E-2,8.4E-1,1.7E1,-1.3195039E-3,-7.832337E-3,-1.21343145E-2,2.6E1,5.015831E-2,3.2814026E-3,-3.213867E-2,3.7E1,2.4884034E-2,3.54E0,-2.0120793E-3,2.3379207E-3,7.4672705E-4,-8.040905E-3,-4.851151E-3,-1.2393475E-2,-1.8816949E-3,4.97303E-3,1.9217033E-2,1.3838548E-4,-3.672409E-3,-9.155274E-6,-1.3115388E-2,4.0978435E-3],"split_indices":[0,0,0,1,1,2,2,1,0,0,2,1,1,1,2,1,0,0,0,0,0,0,0,0,0,0,0,0,2,0,0,0,1,0,1,0,0,1,0,0,0,0,0,0,0,0,0,0,2,0,0,0,0,0,0,0,0,0,0,0,0,0,0],"split_type":[0,0,0,0,0,0,0,0,0,0,0,0,0,0,0,0,0,0,0,0,0,0,0,0,0,0,0,0,0,0,0,0,0,0,0,0,0,0,0,0,0,0,0,0,0,0,0,0,0,0,0,0,0,0,0,0,0,0,0,0,0,0,0],"sum_hessian":[1.51E2,4.6E1,1.05E2,3.8E1,8E0,2.5E1,8E1,3.4E1,4E0,2E0,6E0,1.9E1,6E0,6.1E1,1.9E1,8E0,2.6E1,1E0,3E0,4E0,2E0,1.7E1,2E0,3E0,3E0,5.8E1,3E0,7E0,1.2E1,7E0,1E0,1E0,2.5E1,2E0,2E0,1E0,1E0,1.1E1,6E0,2E0,1E0,3E0,5.5E1,1E0,2E0,4E0,3E0,1E0,1.1E1,1E1,1.5E1,1E0,1E0,6E0,5E0,5E0,1E0,4E0,5.1E1,1E0,2E0,4E0,7E0],"tree_param":{"num_deleted":"0","num_feature":"3","num_nodes":"63","size_leaf_vector":"1"}},{"base_weights":[1.1070803E-3,9.222037E-3,-3.3304426E-3,-2.213738E-3,3.6520362E-2,-2.1190744E-2,9.001273E-4,1.4670478E-2,-7.044196E-3,8.115705E-2,8.853045E-3,-1.0295083E-2,-7.586924E-2,3.0800732E-2,-3.7450388E-3,2.617836E-3,9.333801E-3,-1.862635E-2,-3.1398137E-3,3.8559724E-2,7.6008798E-3,-1.4922619E-2,5.4191113E-2,-1.8297877E-2,2.0288467E-2,4.2268755E-3,-3.8368035E-2,-1.8353462E-2,7.482147E-2,-6.978798E-2,1.949142E-4,1.3830478E-3,-2.603073E-2,-5.7258606E-3,-2.8341928E-2,1.8760046E-2,2.4072649E-2,-5.5999756E-3,-9.058735E-3,1.2553406E-2,-6.6570286E-3,-9.40404E-3,5.088806E-3,3.7451364E-2,-1.6807556E-2,4.9901963E-3,-3.1241989E-2,2.0010313E-2,-6.8025775E-3,-1.4632832E-3,1.6802431E-3,1.7346382E-3,-1.0628844E-2,6.345749E-4,-2.3151399E-3,-2.1022798E-3,-1.0651588E-2,-6.834698E-3,1.5276719E-2,-3.1534196E-3,-1.6525268E-4,-7.461548E-4,3.0361176E-3,-5.99556E-3,-1.5678407E-3,1.3415145E-3,2.1983244E-2,-1.3616638E-3,-1.7998124E-2],"categories":[],"categories_nodes":[],"categories_segments":[],"categories_sizes":[],"default_left":[0,0,0,1,0,0,0,0,0,0,0,1,0,0,0,0,0,0,0,0,0,0,0,0,0,0,0,0,0,0,0,0,0,0,0,0,0,0,0,0,0,0,0,0,0,0,0,0,0,0,0,0,0,0,0,0,0,0,0,0,0,0,0,0,0,0,0,0,0],"id":35,"left_children":[1,3,5,7,9,11,13,15,17,19,21,23,25,27,29,-1,-1,-1,31,-1,-1,33,35,37,39,-1,-1,41,43,45,47,49,51,53,55,57,-1,59,-1,-1,-1,-1,61,-1,63,-1,-1,65,67,-1,-1,-1,-1,-1,-1,-1,-1,-1,-1,-1,-1,-1,-1,-1,-1,-1,-1,-1,-1],"loss_changes":[5.5042803E-3,1.6938431E-2,7.49944E-3,3.284123E-3,1.904115E-2,1.0538329E-2,1.1365705E-2,6.0815166E-4,6.4673093E-3,1.2610644E-2,1.2666043E-2,4.5320513E-3,1.5842078E-2,2.5175076E-2,1.8488234E-2,0E0,0E0,0E0,3.141975E-3,0E0,0E0,8.250312E-4,2.1867193E-3,1.9460018E-3,4.591246E-3,0E0,0E0,1.987077E-3,2.9595945E-2,1.3607329E-2,9.564871E-3,7.138737E-4,1.699863E-3,1.1000635E-4,2.0967005E-4,5.1684314E-3,0E0,1.9259728E-4,0E0,0E0,0E0,0E0,1.3952897E-4,0E0,5.959475E-6,0E0,0E0,1.45708695E-2,5.868542E-3,0E0,0E0,0E0,0E0,0E0,0E0,0E0,0E0,0E0,0E0,0E0,0E0,0E0,0E0,0E0,0E0,0E0,0E0,0E0,0E0],"parents":[2147483647,0,0,1,1,2,2,3,3,4,4,5,5,6,6,7,7,8,8,9,9,10,10,11,11,12,12,13,13,14,14,18,18,21,21,22,22,23,23,24,24,27,27,28,28,29,29,30,30,31,31,32,32,33,33,34,34,35,35,37,37,42,42,44,44,47,47,48,48],"right_children":[2,4,6,8,10,12,14,16,18,20,22,24,26,28,30,-1,-1,-1,32,-1,-1,34,36,38,40,-1,-1,42,44,46,48,50,52,54,56,58,-1,60,-1,-1,-1,-1,62,-1,64,-1,-1,66,68,-1,-1,-1,-1,-1,-1,-1,-1,-1,-1,-1,-1,-1,-1,-1,-1,-1,-1,-1,-1],"split_conditions":[1.4E1,9E0,1.8E1,1.19E0,1.1E1,1.7E1,2.5E1,5.4E-1,1.36E0,3.77E0,1.1205E2,5.84E0,2.6E0,5.1E-1,2.7E1,2.617836E-3,9.333801E-3,-1.862635E-2,3.48E0,3.8559724E-2,7.6008798E-3,1.3E1,1.2E1,8.4E-1,8.13E0,4.2268755E-3,-3.8368035E-2,1.9E1,4.07E0,6E-1,3.5E1,2.53E0,2E0,1.2E1,8.4E-1,2E0,2.4072649E-2,1.5E1,-9.058735E-3,1.2553406E-2,-6.6570286E-3,-9.40404E-3,2.24E0,3.7451364E-2,2E1,4.9901963E-3,-3.1241989E-2,3.4E1,4.75E0,-1.4632832E-3,1.6802431E-3,1.7346382E-3,-1.0628844E-2,6.345749E-4,-2.3151399E-3,-2.1022798E-3,-1.0651588E-2,-6.834698E-3,1.5276719E-2,-3.1534196E-3,-1.6525268E-4,-7.461548E-4,3.0361176E-3,-5.99556E-3,-1.5678407E-3,1.3415145E-3,2.1983244E-2,-1.3616638E-3,-1.7998124E-2],"split_indices":[0,0,0,1,0,0,0,1,1,1,1,1,1,2,0,0,0,0,1,0,0,0,0,1,1,0,0,0,1,1,0,1,0,0,1,2,0,0,0,0,0,0,1,0,0,0,0,0,2,0,0,0,0,0,0,0,0,0,0,0,0,0,0,0,0,0,0,0,0],"split_type":[0,0,0,0,0,0,0,0,0,0,0,0,0,0,0,0,0,0,0,0,0,0,0,0,0,0,0,0,0,0,0,0,0,0,0,0,0,0,0,0,0,0,0,0,0,0,0,0,0,0,0,0,0,0,0,0,0,0,0,0,0,0,0,0,0,0,0,0,0],"sum_hessian":[1.51E2,5.3E1,9.8E1,3.8E1,1.5E1,1.8E1,8E1,8E0,3E1,5E0,1E1,1.6E1,2E0,1E1,7E1,7E0,1E0,1E0,2.9E1,2E0,3E0,7E0,3E0,1.3E1,3E0,1E0,1E0,5E0,5E0,3E0,6.7E1,2.5E1,4E0,5E0,2E0,2E0,1E0,7E0,6E0,2E0,1E0,3E0,2E0,3E0,2E0,1E0,2E0,1.7E1,5E1,1E1,1.5E1,1E0,3E0,1E0,4E0,1E0,1E0,1E0,1E0,3E0,4E0,1E0,1E0,1E0,1E0,1.4E1,3E0,4.9E1,1E0],"tree_param":{"num_deleted":"0","num_feature":"3","num_nodes":"69","size_leaf_vector":"1"}},{"base_weights":[8.322604E-4,7.3608225E-3,-2.73718E-3,-1.9434262E-3,2.9579878E-2,-1.6971286E-2,6.354768E-4,1.1596786E-2,-5.8117644E-3,6.450399E-2,7.841283E-3,-7.587545E-3,-6.448873E-2,6.1875926E-3,-1.6607856E-2,1.9304754E-3,7.93376E-3,-1.5832383E-2,-2.4871826E-3,3.0847933E-2,5.8908467E-3,-1.2249947E-2,4.6063423E-2,-1.3692992E-2,1.5678406E-2,3.5928728E-3,-3.26128E-2,-1.0288886E-3,4.3816186E-2,-4.9247265E-2,4.75546E-3,9.762691E-4,-1.9999694E-2,-4.2877197E-3,-2.4091085E-2,1.5946707E-2,2.0462036E-2,-8.0930395E-3,-9.458542E-3,1.0043335E-2,-5.6579593E-3,6.5973857E-3,-3.0747153E-2,3.7017062E-2,2.1264605E-2,-7.543373E-2,-4.202366E-3,1.4184316E-2,-1.6258622E-2,3.8928988E-3,-1.6932488E-4,1.4745713E-3,-8.237172E-3,-2.3399354E-3,-1.745224E-4,-1.786995E-3,-9.053994E-3,-5.8095935E-3,1.2985611E-2,-3.3693041E-3,-9.2496874E-4,3.383343E-4,1.4382249E-2,7.0037844E-4,-1.0286637E-2,1.0754299E-2,-1.7778397E-3,-6.051064E-3,-2.526212E-2,-2.9173852E-3,2.6397707E-4,1.0913086E-2,-7.2482303E-3],"categories":[],"categories_nodes":[],"categories_segments":[],"categories_sizes":[],"default_left":[0,0,0,1,0,0,0,0,0,0,0,1,0,0,0,0,0,0,0,0,0,0,0,0,0,0,0,0,0,0,0,0,0,0,0,0,0,0,0,0,0,0,0,0,0,0,0,0,0,0,0,0,0,0,0,0,0,0,0,0,0,0,0,0,0,0,0,0,0,0,0,0,0],"id":36,"left_children":[1,3,5,7,9,11,13,15,17,19,21,23,25,27,29,-1,-1,-1,31,-1,-1,33,35,37,39,-1,-1,41,43,45,47,49,51,53,55,57,-1,59,-1,-1,-1,61,63,-1,65,67,69,71,-1,-1,-1,-1,-1,-1,-1,-1,-1,-1,-1,-1,-1,-1,-1,-1,-1,-1,-1,-1,-1,-1,-1,-1,-1],"loss_changes":[3.5622518E-3,1.12209935E-2,4.763454E-3,2.1101444E-3,1.1641422E-2,7.982626E-3,7.857459E-3,5.196639E-4,4.708826E-3,8.297559E-3,9.011502E-3,2.6295176E-3,1.1445912E-2,1.6880935E-2,1.4179914E-2,0E0,0E0,0E0,1.8391374E-3,0E0,0E0,6.5095874E-4,1.5798677E-3,1.1431288E-3,3.0904252E-3,0E0,0E0,1.2214752E-2,1.5321353E-2,9.119533E-3,7.994635E-3,4.8802025E-4,1.0639795E-3,7.355635E-5,1.5148439E-4,3.7343847E-3,0E0,1.5402009E-4,0E0,0E0,0E0,9.669621E-3,1.3688486E-3,0E0,3.7811552E-3,7.25748E-4,1.20819626E-4,1.1090636E-2,0E0,0E0,0E0,0E0,0E0,0E0,0E0,0E0,0E0,0E0,0E0,0E0,0E0,0E0,0E0,0E0,0E0,0E0,0E0,0E0,0E0,0E0,0E0,0E0,0E0],"parents":[2147483647,0,0,1,1,2,2,3,3,4,4,5,5,6,6,7,7,8,8,9,9,10,10,11,11,12,12,13,13,14,14,18,18,21,21,22,22,23,23,24,24,27,27,28,28,29,29,30,30,31,31,32,32,33,33,34,34,35,35,37,37,41,41,42,42,44,44,45,45,46,46,47,47],"right_children":[2,4,6,8,10,12,14,16,18,20,22,24,26,28,30,-1,-1,-1,32,-1,-1,34,36,38,40,-1,-1,42,44,46,48,50,52,54,56,58,-1,60,-1,-1,-1,62,64,-1,66,68,70,72,-1,-1,-1,-1,-1,-1,-1,-1,-1,-1,-1,-1,-1,-1,-1,-1,-1,-1,-1,-1,-1,-1,-1,-1,-1],"split_conditions":[1.4E1,9E0,1.8E1,1.19E0,1.1E1,1.7E1,1.1E0,5.4E-1,1.36E0,3.77E0,1.1205E2,5.84E0,2.6E0,9.6E-1,1.93E0,1.9304754E-3,7.93376E-3,-1.5832383E-2,3.48E0,3.0847933E-2,5.8908467E-3,1.3E1,1.2E1,7.6E-1,8.13E0,3.5928728E-3,-3.26128E-2,9E-1,1.9E1,3.6E1,8E1,1.49E0,2E0,8.4E-1,8.4E-1,2E0,2.0462036E-2,1.5E1,-9.458542E-3,1.0043335E-2,-5.6579593E-3,8.5E-1,3E1,3.7017062E-2,3.96E0,5.82E0,3.7E1,3.75E0,-1.6258622E-2,3.8928988E-3,-1.6932488E-4,1.4745713E-3,-8.237172E-3,-2.3399354E-3,-1.745224E-4,-1.786995E-3,-9.053994E-3,-5.8095935E-3,1.2985611E-2,-3.3693041E-3,-9.2496874E-4,3.383343E-4,1.4382249E-2,7.0037844E-4,-1.0286637E-2,1.0754299E-2,-1.7778397E-3,-6.051064E-3,-2.526212E-2,-2.9173852E-3,2.6397707E-4,1.0913086E-2,-7.2482303E-3],"split_indices":[0,0,0,1,0,0,2,1,1,1,1,1,1,2,2,0,0,0,1,0,0,0,0,2,1,0,0,2,0,0,0,1,0,1,1,2,0,0,0,0,0,2,0,0,1,1,0,2,0,0,0,0,0,0,0,0,0,0,0,0,0,0,0,0,0,0,0,0,0,0,0,0,0],"split_type":[0,0,0,0,0,0,0,0,0,0,0,0,0,0,0,0,0,0,0,0,0,0,0,0,0,0,0,0,0,0,0,0,0,0,0,0,0,0,0,0,0,0,0,0,0,0,0,0,0,0,0,0,0,0,0,0,0,0,0,0,0,0,0,0,0,0,0,0,0,0,0,0,0],"sum_hessian":[1.51E2,5.3E1,9.8E1,3.8E1,1.5E1,1.8E1,8E1,8E0,3E1,5E0,1E1,1.6E1,2E0,6.1E1,1.9E1,7E0,1E0,1E0,2.9E1,2E0,3E0,7E0,3E0,1.3E1,3E0,1E0,1E0,5.2E1,9E0,7E0,1.2E1,2.5E1,4E0,5E0,2E0,2E0,1E0,1.1E1,2E0,2E0,1E0,4.2E1,1E1,1E0,8E0,4E0,3E0,1.1E1,1E0,2E0,2.3E1,1E0,3E0,2E0,3E0,1E0,1E0,1E0,1E0,6E0,5E0,3.8E1,4E0,1E0,9E0,5E0,3E0,1E0,3E0,1E0,2E0,7E0,4E0],"tree_param":{"num_deleted":"0","num_feature":"3","num_nodes":"73","size_leaf_vector":"1"}},{"base_weights":[6.369862E-4,-3.517603E-4,1.8478394E-2,1.7601252E-3,-1.2905757E-2,3.4751894E-3,7.832337E-3,3.6811156E-4,2.6155474E-2,-4.4533253E-2,-5.160438E-3,5.446029E-3,-7.2561265E-3,-2.0302964E-2,3.7344934E-3,-2.632141E-4,-1.7840575E-2,-5.374785E-4,2.1927547E-2,8.784988E-3,-1.9175036E-2,-3.7986755E-3,6.8603517E-3,2.1972657E-4,-1.3819885E-2,-7.109532E-4,1.5036393E-2,4.8069838E-3,1.09307105E-2,-2.3561205E-4,3.1464387E-2,-3.2198948E-3,-1.3252177E-2,-6.5701804E-4,-2.7414323E-3,3.2196045E-3,2.1057129E-4],"categories":[],"categories_nodes":[],"categories_segments":[],"categories_sizes":[],"default_left":[0,0,0,0,0,0,0,0,0,1,0,0,0,0,0,0,0,0,0,0,0,0,0,0,0,0,0,0,0,0,0,0,0,0,0,0,0],"id":37,"left_children":[1,3,5,7,9,-1,-1,11,-1,13,15,17,19,-1,-1,21,23,25,27,29,31,33,35,-1,-1,-1,-1,-1,-1,-1,-1,-1,-1,-1,-1,-1,-1],"loss_changes":[2.6878756E-3,3.8670432E-3,1.1837087E-4,1.4831964E-2,4.914455E-3,0E0,0E0,4.8402078E-3,0E0,6.117421E-3,1.1130586E-3,7.408082E-3,9.7280815E-3,0E0,0E0,3.7865152E-4,2.65492E-3,5.3170025E-3,1.1293814E-3,2.031525E-2,5.6460993E-3,6.587792E-5,1.11684334E-4,0E0,0E0,0E0,0E0,0E0,0E0,0E0,0E0,0E0,0E0,0E0,0E0,0E0,0E0],"parents":[2147483647,0,0,1,1,2,2,3,3,4,4,7,7,9,9,10,10,11,11,12,12,15,15,16,16,17,17,18,18,19,19,20,20,21,21,22,22],"right_children":[2,4,6,8,10,-1,-1,12,-1,14,16,18,20,-1,-1,22,24,26,28,30,32,34,36,-1,-1,-1,-1,-1,-1,-1,-1,-1,-1,-1,-1,-1,-1],"split_conditions":[1.04E2,4.4E1,8.5E-1,4.3E1,5.2E1,3.4751894E-3,7.832337E-3,3.77E0,2.6155474E-2,3.77E0,1.55E0,2.1E1,1.9E1,-2.0302964E-2,3.7344934E-3,7.5E1,8E1,3.48E0,2.14E0,1.8E1,2.2410002E2,1.48E0,8.3E-1,2.1972657E-4,-1.3819885E-2,-7.109532E-4,1.5036393E-2,4.8069838E-3,1.09307105E-2,-2.3561205E-4,3.1464387E-2,-3.2198948E-3,-1.3252177E-2,-6.5701804E-4,-2.7414323E-3,3.2196045E-3,2.1057129E-4],"split_indices":[0,0,2,0,0,0,0,1,0,1,2,0,0,0,0,0,0,1,1,0,1,1,2,0,0,0,0,0,0,0,0,0,0,0,0,0,0],"split_type":[0,0,0,0,0,0,0,0,0,0,0,0,0,0,0,0,0,0,0,0,0,0,0,0,0,0,0,0,0,0,0,0,0,0,0,0,0],"sum_hessian":[1.51E2,1.44E2,7E0,1.24E2,2E1,5E0,2E0,1.23E2,1E0,3E0,1.7E1,7.4E1,4.9E1,2E0,1E0,1.3E1,4E0,5.5E1,1.9E1,2.1E1,2.8E1,9E0,4E0,3E0,1E0,5.4E1,1E0,1.5E1,4E0,2E1,1E0,2.2E1,6E0,8E0,1E0,2E0,2E0],"tree_param":{"num_deleted":"0","num_feature":"3","num_nodes":"37","size_leaf_vector":"1"}},{"base_weights":[7.888871E-4,6.2054815E-3,-2.1735874E-3,-9.5872086E-4,2.3280382E-2,-1.3642409E-3,-1.2223435E-2,9.793494E-3,-4.049405E-3,4.9006145E-2,7.1317498E-3,-3.3224148E-3,2.456665E-2,1.6105414E-3,6.779051E-3,-1.3350875E-2,-1.2175242E-3,2.0745277E-2,1.7433168E-3,-9.859562E-3,3.9331436E-2,-1.006205E-3,-2.7516842E-2,2.2232438E-2,3.958384E-3,1.5110603E-3,-1.5162659E-2,-3.0651093E-3,-2.0161947E-2,1.3712565E-2,1.7428208E-2,-3.6027338E-3,2.1320343E-2,-2.5225641E-2,-7.423401E-3,2.1484375E-3,1.6994477E-4,-1.0455739E-3,1.455474E-3,1.2888908E-3,-6.3304426E-3,6.0138706E-4,-1.3439942E-3,-1.412201E-3,-7.6606753E-3,-4.902649E-3,1.1073303E-2,-6.295757E-3,6.16885E-4,1.9434357E-2,-3.3620836E-3,1.8205263E-2,-8.666611E-3],"categories":[],"categories_nodes":[],"categories_segments":[],"categories_sizes":[],"default_left":[0,0,0,1,0,0,0,0,0,0,0,0,0,0,0,0,0,0,0,0,0,1,0,0,0,0,0,0,0,0,0,0,0,0,0,0,0,0,0,0,0,0,0,0,0,0,0,0,0,0,0,0,0],"id":38,"left_children":[1,3,5,7,9,11,-1,13,15,17,19,21,23,-1,-1,-1,25,-1,-1,27,29,31,33,-1,35,37,39,41,43,45,-1,47,49,-1,51,-1,-1,-1,-1,-1,-1,-1,-1,-1,-1,-1,-1,-1,-1,-1,-1,-1,-1],"loss_changes":[2.4525598E-3,6.6280337E-3,3.0349437E-3,1.3356941E-3,6.2974747E-3,5.0577857E-3,0E0,3.8858526E-4,3.4971617E-3,4.819095E-3,6.406055E-3,5.1279343E-3,6.853399E-3,0E0,0E0,0E0,1.164426E-3,0E0,0E0,4.9819396E-4,1.1260877E-3,5.0043915E-3,8.469066E-3,0E0,6.113023E-5,4.5085564E-4,6.6847436E-4,5.2018793E-5,1.2893777E-4,2.6948748E-3,0E0,7.617749E-3,1.344897E-2,0E0,1.198674E-2,0E0,0E0,0E0,0E0,0E0,0E0,0E0,0E0,0E0,0E0,0E0,0E0,0E0,0E0,0E0,0E0,0E0,0E0],"parents":[2147483647,0,0,1,1,2,2,3,3,4,4,5,5,7,7,8,8,9,9,10,10,11,11,12,12,16,16,19,19,20,20,21,21,22,22,24,24,25,25,26,26,27,27,28,28,29,29,31,31,32,32,34,34],"right_children":[2,4,6,8,10,12,-1,14,16,18,20,22,24,-1,-1,-1,26,-1,-1,28,30,32,34,-1,36,38,40,42,44,46,-1,48,50,-1,52,-1,-1,-1,-1,-1,-1,-1,-1,-1,-1,-1,-1,-1,-1,-1,-1,-1,-1],"split_conditions":[1.4E1,9E0,4.75E0,1.19E0,1.1E1,3.54E0,-1.2223435E-2,5.4E-1,1.36E0,5.42E0,1.1205E2,1.55E0,3.74E0,1.6105414E-3,6.779051E-3,-1.3350875E-2,3.48E0,2.0745277E-2,1.7433168E-3,1.3E1,1.2E1,4.05E0,1.93E0,2.2232438E-2,2.8E1,2.53E0,2E0,1.2E1,8.4E-1,2E0,1.7428208E-2,1.9E1,1.9E1,-2.5225641E-2,2.17E0,2.1484375E-3,1.6994477E-4,-1.0455739E-3,1.455474E-3,1.2888908E-3,-6.3304426E-3,6.0138706E-4,-1.3439942E-3,-1.412201E-3,-7.6606753E-3,-4.902649E-3,1.1073303E-2,-6.295757E-3,6.16885E-4,1.9434357E-2,-3.3620836E-3,1.8205263E-2,-8.666611E-3],"split_indices":[0,0,2,1,0,2,0,1,1,1,1,2,2,0,0,0,1,0,0,0,0,1,2,0,0,1,0,0,1,2,0,0,0,0,2,0,0,0,0,0,0,0,0,0,0,0,0,0,0,0,0,0,0],"split_type":[0,0,0,0,0,0,0,0,0,0,0,0,0,0,0,0,0,0,0,0,0,0,0,0,0,0,0,0,0,0,0,0,0,0,0,0,0,0,0,0,0,0,0,0,0,0,0,0,0,0,0,0,0],"sum_hessian":[1.51E2,5.3E1,9.8E1,3.8E1,1.5E1,9.7E1,1E0,8E0,3E1,5E0,1E1,9.1E1,6E0,7E0,1E0,1E0,2.9E1,3E0,2E0,7E0,3E0,8.4E1,7E0,1E0,5E0,2.5E1,4E0,5E0,2E0,2E0,1E0,7.6E1,8E0,1E0,6E0,2E0,3E0,1E1,1.5E1,1E0,3E0,1E0,4E0,1E0,1E0,1E0,1E0,1.8E1,5.8E1,3E0,5E0,1E0,5E0],"tree_param":{"num_deleted":"0","num_feature":"3","num_nodes":"53","size_leaf_vector":"1"}},{"base_weights":[7.7427377E-4,2.8614085E-3,-5.5624307E-3,5.176914E-3,-4.8771612E-3,-1.689938E-2,1.0087586E-3,3.804104E-3,1.889763E-2,-1.6365433E-2,1.2788391E-3,-4.4859373E-3,-2.6741125E-2,2.3830034E-2,-5.568663E-3,4.7584414E-3,-2.48216E-2,-4.359139E-3,1.3804436E-2,-1.423645E-2,3.3876896E-3,-1.8493306E-2,4.9841744E-3,6.5788915E-3,